num	seq	orient	tm	start	len	genomeStart	Chr	Pos	Locus
0	ACTGTTCTGTTTACTCCTCTGGT	left	59.032	29	23	15550493	CP136866.1	15550516,15550523,15550530,15550533,15550538	CP136866.1_15550516_15550538
0	TCACTGATCAATAGCAAGCTTGT	right	58.417	133	23	15550597	CP136866.1	15550516,15550523,15550530,15550533,15550538	CP136866.1_15550516_15550538
0	TCTGTGCTGAACATAACCGCT	left	59.998	17	21	23328537	CP136866.1	23328565,23328568,23328578,23328589,23328594	CP136866.1_23328565_23328594
0	GGGAGCGCAGATATCGTGAA	right	59.968	103	20	23328623	CP136866.1	23328565,23328568,23328578,23328589,23328594	CP136866.1_23328565_23328594
0	ACAACTTAGTACCTCTTCTCACAGG	left	59.756	3	25	8254018	CP136866.1	8254043,8254069,8254083,8254089	CP136866.1_8254043_8254089
0	TCCTCTGCAACCCAAAACCA	right	59.74	148	20	8254163	CP136866.1	8254043,8254069,8254083,8254089	CP136866.1_8254043_8254089
0	GAACGCAGAATCTGGCACCA	left	60.955	18	20	4095318	CP136866.1	4095338,4095346,4095356,4095374	CP136866.1_4095338_4095374
0	GCAACCAAAGCCTGCTCAAA	right	59.895	99	20	4095399	CP136866.1	4095338,4095346,4095356,4095374	CP136866.1_4095338_4095374
0	TGAAGCTCAGAGTGTGGTGG	left	59.606	10	20	19438542	CP136866.1	19438567,19438569,19438606	CP136866.1_19438567_19438606
0	CCTCAGGTCCGCTGTTGATA	right	59.176	121	20	19438653	CP136866.1	19438567,19438569,19438606	CP136866.1_19438567_19438606
0	GCCTCTCGCAACCCTGATAA	left	59.822	18	20	27231396	CP136866.1	27231431,27231439,27231443,27231452	CP136866.1_27231431_27231452
0	AGTTACCATGCAAATGTCACGA	right	58.592	100	22	27231478	CP136866.1	27231431,27231439,27231443,27231452	CP136866.1_27231431_27231452
0	TGGAACGCTGTCATTTTTGGG	left	59.66	28	21	12045764	CP136866.1	12045793,12045804,12045810	CP136866.1_12045793_12045810
0	ACCCGCTCACATTAACTAAAGC	right	58.992	177	22	12045913	CP136866.1	12045793,12045804,12045810	CP136866.1_12045793_12045810
0	ACTGAGAAAGGCCAATATTGATTGA	left	58.81	9	25	17341641	CP136866.1	17341669,17341685,17341689,17341700,17341706	CP136866.1_17341669_17341706
0	GTTGCTGGATTGGTGGTTGC	right	60.32	156	20	17341788	CP136866.1	17341669,17341685,17341689,17341700,17341706	CP136866.1_17341669_17341706
0	CATGATTGGGTTGCAAGCTGT	left	59.726	9	21	29130882	CP136866.1	29130903,29130915,29130924,29130931,29130945,29130947	CP136866.1_29130903_29130947
0	ACCAAGTAGGAGGCCTGTCA	right	60.179	152	20	29131025	CP136866.1	29130903,29130915,29130924,29130931,29130945,29130947	CP136866.1_29130903_29130947
0	AGACAGACAGTGAGTGGGGA	left	59.811	4	20	13849084	CP136866.1	13849107,13849119,13849134,13849146,13849154	CP136866.1_13849107_13849154
0	AGCCGTATGTGTGCATTTGC	right	59.829	105	20	13849185	CP136866.1	13849107,13849119,13849134,13849146,13849154	CP136866.1_13849107_13849154
0	GCAGAGGTAACATAAACATTACAGC	left	58.513	9	25	25190689	CP136866.1	25190724,25190729,25190732,25190754	CP136866.1_25190724_25190754
0	ACAGCTGCAACATGAATCACA	right	58.768	118	21	25190798	CP136866.1	25190724,25190729,25190732,25190754	CP136866.1_25190724_25190754
0	TGTCGCCTAAACATTACATCATCAC	left	59.707	0	25	21505741	CP136866.1	21505768,21505806,21505815	CP136866.1_21505768_21505815
0	CCATTACCACGCCACTGCTA	right	60.108	110	20	21505851	CP136866.1	21505768,21505806,21505815	CP136866.1_21505768_21505815
0	TTTCTCCTTCCGTTCCCCAC	left	59.601	14	20	6117256	CP136866.1	6117288,6117308,6117316	CP136866.1_6117288_6117316
0	GTCAAGGAGGCCTACACCAC	right	60.036	139	20	6117381	CP136866.1	6117288,6117308,6117316	CP136866.1_6117288_6117316
0	ACCATGGACGTTTCATTGGGA	left	59.925	3	21	2072182	CP136866.1	2072204,2072253	CP136866.1_2072204_2072253
0	AGCCCACAGACTTCCATTGT	right	59.226	138	20	2072317	CP136866.1	2072204,2072253	CP136866.1_2072204_2072253
0	AGTGCACTGTTTCATCCACTCT	left	59.895	20	22	10000274	CP136866.1	10000296,10000306,10000315,10000328	CP136866.1_10000296_10000328
0	TGGCTCTACAAATATATCCTGGTGT	right	59.393	111	25	10000365	CP136866.1	10000296,10000306,10000315,10000328	CP136866.1_10000296_10000328
0	ACAGTCCCAATAAACCCAGGT	left	58.929	3	21	18346099	CP136866.1	18346137,18346162,18346167,18346170	CP136866.1_18346137_18346170
0	TGTCAGTGACTACTCTGCAAGT	right	59.041	152	22	18346248	CP136866.1	18346137,18346162,18346167,18346170	CP136866.1_18346137_18346170
0	TGAGTGGCGTCTGTTTGGAT	left	59.604	14	20	20483596	CP136866.1	20483624,20483638,20483649,20483656	CP136866.1_20483624_20483656
0	GGTTCCCTGTGGAGAGGAGA	right	60.252	142	20	20483724	CP136866.1	20483624,20483638,20483649,20483656	CP136866.1_20483624_20483656
0	AACTGTAGACAATGAAATCCAGACA	left	58.466	3	25	10978244	CP136866.1	10978271,10978303,10978308,10978315	CP136866.1_10978271_10978315
0	CACAATCATTTAGGCTAACTGGCA	right	59.601	108	24	10978349	CP136866.1	10978271,10978303,10978308,10978315	CP136866.1_10978271_10978315
0	GCAATCAGCAGCTACACCAC	left	59.551	10	20	24278760	CP136866.1	24278781,24278794,24278800,24278824	CP136866.1_24278781_24278824
0	TAGTGGTGGGGGCAGTAGAA	right	59.882	99	20	24278849	CP136866.1	24278781,24278794,24278800,24278824	CP136866.1_24278781_24278824
0	TGCAGGTACGAATGGAAAGATCT	left	59.802	2	23	22378116	CP136866.1	22378146,22378172,22378177,22378179,22378181,22378188	CP136866.1_22378146_22378188
0	ACTGCAGGAAAACAGGAGCA	right	59.817	136	20	22378250	CP136866.1	22378146,22378172,22378177,22378179,22378181,22378188	CP136866.1_22378146_22378188
0	TGGATTGATATTTTGTTCCGCTGT	left	59.295	25	24	28101899	CP136866.1	28101928,28101930,28101944,28101948	CP136866.1_28101928_28101948
0	TTATGTAACCCGCTGCTGCT	right	59.748	153	20	28102027	CP136866.1	28101928,28101930,28101944,28101948	CP136866.1_28101928_28101948
0	TGGAAGTTGACACCAGTGTTTTG	left	59.808	20	23	26175537	CP136866.1	26175568,26175582,26175591	CP136866.1_26175568_26175591
0	CCCAGTTGAGGCATCGGAAT	right	60.107	161	20	26175678	CP136866.1	26175568,26175582,26175591	CP136866.1_26175568_26175591
0	GCCTGTCAGAACCCTGTGG	left	60.303	0	19	18595024	CP136867.1	18595051,18595062,18595068,18595071,18595098	CP136867.1_18595051_18595098
0	TCTATGAAGGAGGCTTGGAACA	right	58.819	110	22	18595134	CP136867.1	18595051,18595062,18595068,18595071,18595098	CP136867.1_18595051_18595098
0	AGGTCCAACGTCACCTAGGA	left	59.886	14	20	9592902	CP136867.1	9592924,9592936,9592939,9592947,9592949,9592962	CP136867.1_9592924_9592962
0	CGCATGCAAACTACAAGGTCA	right	59.465	157	21	9593045	CP136867.1	9592924,9592936,9592939,9592947,9592949,9592962	CP136867.1_9592924_9592962
0	TGCGCTGAGATAATCAAGCC	left	58.414	15	20	26564749	CP136867.1	26564769,26564777,26564794,26564808	CP136867.1_26564769_26564808
0	CTCTGTCCGGGCCTTTACAA	right	59.676	96	20	26564830	CP136867.1	26564769,26564777,26564794,26564808	CP136867.1_26564769_26564808
0	TGAGTGTTGGTGCTTGTGGA	left	59.746	31	20	4705668	CP136867.1	4705703,4705706,4705711	CP136867.1_4705703_4705711
0	GACCACTTGGGGCTTCCATA	right	59.376	119	20	4705756	CP136867.1	4705703,4705706,4705711	CP136867.1_4705703_4705711
0	GCTCCATCAGCTCTACAGAGT	left	58.969	21	21	14203338	CP136867.1	14203372,14203380,14203391	CP136867.1_14203372_14203391
0	TGCCTAAACGAGTTTGGCGT	right	60.533	95	20	14203412	CP136867.1	14203372,14203380,14203391	CP136867.1_14203372_14203391
0	TCTGGATGATAACTTTGGCCAAA	left	58.328	14	23	31326557	CP136867.1	31326585,31326587,31326589,31326604,31326617	CP136867.1_31326585_31326617
0	ACGTGTAGCAATTAAACTATGCAAA	right	58.096	148	25	31326691	CP136867.1	31326585,31326587,31326589,31326604,31326617	CP136867.1_31326585_31326617
0	GGGAACTCCAAGCAGGGAAA	left	59.888	13	20	22551172	CP136867.1	22551193,22551197,22551205,22551233	CP136867.1_22551193_22551233
0	AGGACAAAACATTTGTGAACTCACT	right	59.581	100	25	22551259	CP136867.1	22551193,22551197,22551205,22551233	CP136867.1_22551193_22551233
0	TGACTGAAATCACTGAAACTTCACT	left	58.885	35	25	2464111	CP136867.1	2464137,2464146,2464150	CP136867.1_2464137_2464150
0	GCCTGTCTTTGGAGGACACA	right	59.891	146	20	2464222	CP136867.1	2464137,2464146,2464150	CP136867.1_2464137_2464150
0	ACTTGCTAAGCCATTGACTCAC	left	58.923	1	22	11890667	CP136867.1	11890695,11890730,11890740	CP136867.1_11890695_11890740
0	TGTGTGAATCTCAGAGATAGCGA	right	59.052	117	23	11890783	CP136867.1	11890695,11890730,11890740	CP136867.1_11890695_11890740
0	AGAGACGTCAAGCAGAGAACA	left	59.043	20	21	29121108	CP136867.1	29121131,29121138,29121148,29121162	CP136867.1_29121131_29121162
0	CACTTAATACAAACTCGCCGGA	right	58.744	163	22	29121251	CP136867.1	29121131,29121138,29121148,29121162	CP136867.1_29121131_29121162
0	AGTCGGCTTCTGTTGCACTT	left	60.179	16	20	16541578	CP136867.1	16541618,16541631,16541636	CP136867.1_16541618_16541636
0	TCCATGTACACTCTAGGCTGC	right	59.243	154	21	16541716	CP136867.1	16541618,16541631,16541636	CP136867.1_16541618_16541636
0	AGAAACAGAGTTTGAGCTCCAGT	left	59.864	2	23	33381895	CP136867.1	33381918,33381921,33381967	CP136867.1_33381918_33381967
0	ACAAGCTGTTGTGACGGTAGA	right	59.589	134	21	33382027	CP136867.1	33381918,33381921,33381967	CP136867.1_33381918_33381967
0	AGGGAGCTCGGAATAAAGCC	left	59.53	19	20	6849583	CP136867.1	6849603,6849615,6849638	CP136867.1_6849603_6849638
0	TCCTCATTTGGACGTTCCCG	right	60.037	122	20	6849686	CP136867.1	6849603,6849615,6849638	CP136867.1_6849603_6849638
0	GGAGGTGGGAAGGCAGAAAA	left	59.888	4	20	24402583	CP136867.1	24402605,24402608,24402612,24402637,24402641,24402653	CP136867.1_24402605_24402653
0	ACATCCCTCCATCTTGCTCT	right	58.109	113	20	24402692	CP136867.1	24402605,24402608,24402612,24402637,24402641,24402653	CP136867.1_24402605_24402653
0	CAGAGCAGCTGTCTTACGCT	left	60.109	11	20	20677462	CP136867.1	20677482,20677500,20677507,20677525	CP136867.1_20677482_20677525
0	TGATGTTCTCTCCAATGCCTCA	right	59.427	99	22	20677550	CP136867.1	20677482,20677500,20677507,20677525	CP136867.1_20677482_20677525
1	AACCAGGTGTCATTCAGCCC	left	60.251	11	20	8207760	CP136867.1	8207780,8207782,8207795,8207823	CP136867.1_8207780_8207823
1	CCACCGTCGGTTTCTGAAGA	right	59.967	150	20	8207899	CP136867.1	8207780,8207782,8207795,8207823	CP136867.1_8207780_8207823
0	CACAAGTGAGGGTTTGCATGG	left	60	32	21	27844102	CP136867.1	27844135,27844144	CP136867.1_27844135_27844144
0	ATGTGGACACTAGATGGCGA	right	58.515	94	20	27844164	CP136867.1	27844135,27844144	CP136867.1_27844135_27844144
0	GCAGGTGGGGGTGTGTTTAA	left	60.468	34	20	30227821	CP136867.1	30227841,30227858,30227861	CP136867.1_30227841_30227861
0	AGGAGCTTGAAATAACCGCTGA	right	60.027	153	22	30227940	CP136867.1	30227841,30227858,30227861	CP136867.1_30227841_30227861
0	TACCCTCCGATCCCTAAGCC	left	60.179	2	20	15417869	CP136867.1	15417896,15417899,15417908,15417935,15417941	CP136867.1_15417896_15417941
0	AACTGTCAGTGGGTGGTACA	right	58.497	125	20	15417992	CP136867.1	15417896,15417899,15417908,15417935,15417941	CP136867.1_15417896_15417941
0	TGAGGGAGACGGAGACACAT	left	59.96	20	20	10747949	CP136867.1	10747972,10748003	CP136867.1_10747972_10748003
0	TGAAGTCACTGCCAGGTCAC	right	59.893	122	20	10748051	CP136867.1	10747972,10748003	CP136867.1_10747972_10748003
0	ACTGTGGCCCTCGAATTTGT	left	59.89	2	20	13121823	CP136867.1	13121858,13121871,13121895	CP136867.1_13121858_13121895
0	ACACTAACAGCTAAGTACAGACCA	right	59.169	133	24	13121954	CP136867.1	13121858,13121871,13121895	CP136867.1_13121858_13121895
0	AACAGTTAAACATCAGGGCAAAC	left	58.056	13	23	25379870	CP136867.1	25379893,25379895,25379906,25379931	CP136867.1_25379893_25379931
0	GTGCATGTGAACTAGCAACTCA	right	59.192	119	22	25379976	CP136867.1	25379893,25379895,25379906,25379931	CP136867.1_25379893_25379931
0	TTTTGAAATTGATGGCAGCAACA	left	58.551	3	23	3715303	CP136867.1	3715326,3715351,3715374	CP136867.1_3715326_3715374
0	TCCAGCAAGCAATCTTCTCACT	right	59.961	132	22	3715432	CP136867.1	3715326,3715351,3715374	CP136867.1_3715326_3715374
3	TGGAAGTTTTGAACATGGTCCAA	left	58.973	10	23	19638339	CP136867.1	19638363,19638391,19638403	CP136867.1_19638363_19638403
3	AGAGAGGAGCAGAGCTGTCA	right	59.961	106	20	19638435	CP136867.1	19638363,19638391,19638403	CP136867.1_19638363_19638403
0	AGAAGAGAAAAGGAGAGAGTGAGC	left	59.779	27	24	32350028	CP136867.1	32350052,32350067,32350069,32350075	CP136867.1_32350052_32350075
0	TGCTAACAGCCAAAGTCCCA	right	59.524	101	20	32350102	CP136867.1	32350052,32350067,32350069,32350075	CP136867.1_32350052_32350075
0	TCCATATGTTTGCACCGCATG	left	59.595	6	21	17653384	CP136867.1	17653405,17653416,17653442,17653452	CP136867.1_17653405_17653452
0	TGTACGTCCTGATATTCAACAGAGA	right	59.349	115	25	17653493	CP136867.1	17653405,17653416,17653442,17653452	CP136867.1_17653405_17653452
0	TTAATCTCGCGGACCCAGTG	left	59.825	3	20	5786706	CP136867.1	5786746,5786777	CP136867.1_5786746_5786777
0	GCCTTGAGACATTGGGGACA	right	59.962	100	20	5786803	CP136867.1	5786746,5786777	CP136867.1_5786746_5786777
0	TCATTGGGTTGTAGTGGTGCT	left	59.576	25	21	21612306	CP136867.1	21612342,21612355	CP136867.1_21612342_21612355
0	GGAACAGATTAGGCCTGACTGA	right	59.498	102	22	21612383	CP136867.1	21612342,21612355	CP136867.1_21612342_21612355
0	CCAGCAGAAGATTGGTGTTTGT	left	59.375	28	22	17026094	CP136868.1	17026128,17026132,17026140	CP136868.1_17026128_17026140
0	TCTCCTTCCCTCGTTCCCAT	right	59.957	98	20	17026164	CP136868.1	17026128,17026132,17026140	CP136868.1_17026128_17026140
0	CCAAGGTTTCAGGCAGAGAAA	left	58.414	0	21	8207706	CP136868.1	8207733,8207744,8207765,8207771,8207777,8207780	CP136868.1_8207733_8207780
0	GAGGCTCATTTGCATACCGC	right	59.691	112	20	8207818	CP136868.1	8207733,8207744,8207765,8207771,8207777,8207780	CP136868.1_8207733_8207780
0	TGGTGACAGTGGTGCATGTT	left	60.107	2	20	25346071	CP136868.1	25346105,25346114,25346131,25346139,25346143	CP136868.1_25346105_25346143
0	CTCCGAAACAAGCAATGGCC	right	60.109	144	20	25346213	CP136868.1	25346105,25346114,25346131,25346139,25346143	CP136868.1_25346105_25346143
0	GCATCCGTCTACCAACAACC	left	58.916	13	20	12581272	CP136868.1	12581292,12581323,12581333	CP136868.1_12581292_12581333
0	CATTCCCATGGAAAGCTTCACA	right	59.173	117	22	12581376	CP136868.1	12581292,12581323,12581333	CP136868.1_12581292_12581333
0	GCAAAGTTTCTTTTGTGCAGGA	left	58.479	2	22	3920368	CP136868.1	3920399,3920406,3920408,3920412,3920427,3920433,3920440	CP136868.1_3920399_3920440
0	CCAGCCAAAGAGCAACAGTG	right	59.687	115	20	3920481	CP136868.1	3920399,3920406,3920408,3920412,3920427,3920433,3920440	CP136868.1_3920399_3920440
0	GGTGTGTCATATTTAGGGAGCTCT	left	59.898	0	24	21340343	CP136868.1	21340372,21340376,21340390,21340396,21340417	CP136868.1_21340372_21340417
0	GACCCACCATGTCTGTAGGT	right	58.723	149	20	21340492	CP136868.1	21340372,21340376,21340390,21340396,21340417	CP136868.1_21340372_21340417
0	GCCATCCATCCCCAAATGTTC	left	59.586	0	21	28857124	CP136868.1	28857156,28857161,28857166,28857198	CP136868.1_28857156_28857198
0	TGCCCGTCTGACCAACTTTT	right	60.107	105	20	28857229	CP136868.1	28857156,28857161,28857166,28857198	CP136868.1_28857156_28857198
0	ACTGAGCTACATCCCCCTCT	left	59.361	9	20	14745167	CP136868.1	14745192,14745210,14745226,14745228,14745232	CP136868.1_14745192_14745232
0	CCAATGGGCGTGAAGTCAAA	right	59.042	122	20	14745280	CP136868.1	14745192,14745210,14745226,14745228,14745232	CP136868.1_14745192_14745232
0	AGGACCATACTGACATTTCTGCT	left	59.479	5	23	10311764	CP136868.1	10311795,10311799,10311828,10311833	CP136868.1_10311795_10311833
0	CATGCATTGGATCAATCTGCTGA	right	59.682	127	23	10311886	CP136868.1	10311795,10311799,10311828,10311833	CP136868.1_10311795_10311833
0	TAAAGGTCTCAGCTGGCCAG	left	59.385	6	20	6166911	CP136868.1	6166943,6166958,6166979	CP136868.1_6166943_6166979
0	AGGCAAAAGCCTGACCACTT	right	60.106	109	20	6167014	CP136868.1	6166943,6166958,6166979	CP136868.1_6166943_6166979
0	CTGCGTCTCTCTCTCTTGCA	left	59.475	3	20	19351621	CP136868.1	19351669,19351676,19351680,19351692	CP136868.1_19351669_19351692
0	GCGAAGGAGATGACAGCCTT	right	60.108	142	20	19351760	CP136868.1	19351669,19351676,19351680,19351692	CP136868.1_19351669_19351692
0	ACCAGAAAGTCTTTGTAGTACGCT	left	59.961	21	24	30856373	CP136868.1	30856411,30856415,30856426	CP136868.1_30856411_30856426
0	CCACACATCCATCCATACATGC	right	59.445	156	22	30856508	CP136868.1	30856411,30856415,30856426	CP136868.1_30856411_30856426
0	CCGGTGTCGTTTCAGAACCA	left	60.531	18	20	23373573	CP136868.1	23373615,23373627,23373629	CP136868.1_23373615_23373629
0	ATGGGCAGCTGTTCATGTGT	right	60.251	129	20	23373684	CP136868.1	23373615,23373627,23373629	CP136868.1_23373615_23373629
0	AGGTTGATGAGAGTGCTGAGAC	left	59.767	5	22	27022385	CP136868.1	27022407,27022430,27022452,27022454	CP136868.1_27022407_27022454
0	GCACGTGTGATAACAAAGGGT	right	59.123	148	21	27022528	CP136868.1	27022407,27022430,27022452,27022454	CP136868.1_27022407_27022454
0	CTCCGTCTCGATGCACTGAG	left	60.248	14	20	2482403	CP136868.1	2482429,2482434,2482463	CP136868.1_2482429_2482463
0	ACGACTGTGATGATCTCGCC	right	59.899	109	20	2482498	CP136868.1	2482429,2482434,2482463	CP136868.1_2482429_2482463
0	ACAGTCCCTCTTCATGAAGCC	left	59.72	5	21	18255295	CP136868.1	18255324,18255334,18255364	CP136868.1_18255324_18255364
0	GCTATGCTCTTGAAAAGTTCTTTCT	right	58.092	126	25	18255416	CP136868.1	18255324,18255334,18255364	CP136868.1_18255324_18255364
0	AGGAGTTGTGTGTCTGTTTGGT	left	60.026	20	22	9204241	CP136868.1	9204265,9204282,9204285,9204295	CP136868.1_9204265_9204295
0	CAAGACCTGGATTGGCACCA	right	60.251	163	20	9204384	CP136868.1	9204265,9204282,9204285,9204295	CP136868.1_9204265_9204295
0	TGTGGACATCACTGCATGGA	left	59.308	14	20	13583536	CP136868.1	13583564,13583577,13583593,13583596	CP136868.1_13583564_13583596
0	GCAGTAAGCAGTCAAACGCC	right	60.11	158	20	13583680	CP136868.1	13583564,13583577,13583593,13583596	CP136868.1_13583564_13583596
0	TTGGTGCATTGGTGAGCAAG	left	59.325	0	20	22293359	CP136868.1	22293384,22293410,22293422,22293431,22293433	CP136868.1_22293384_22293433
0	CACAGGCAGCAGGTGGATAA	right	60.035	97	20	22293456	CP136868.1	22293384,22293410,22293422,22293431,22293433	CP136868.1_22293384_22293433
0	AGCGCACTACATGTAAATTTGCA	left	59.81	3	23	5051846	CP136868.1	5051899,5051909,5051917	CP136868.1_5051899_5051917
0	ATCACACTCAAGGCCTGACG	right	60.037	102	20	5051945	CP136868.1	5051899,5051909,5051917	CP136868.1_5051899_5051917
0	TCAGGTCGACAGATGAAAGCT	left	59.104	15	21	15873970	CP136868.1	15873994,15874029	CP136868.1_15873994_15874029
0	CTCGATGGAAACTCGATGGTT	right	58.106	156	21	15874111	CP136868.1	15873994,15874029	CP136868.1_15873994_15874029
0	GTGTTTTAGCATCTTCCAGCTCA	left	59.247	21	23	11417542	CP136868.1	11417573,11417595	CP136868.1_11417573_11417595
0	TTGGTGCTAAGCGGGTAGTG	right	60.037	149	20	11417670	CP136868.1	11417573,11417595	CP136868.1_11417573_11417595
0	TGCCACAGATATCTGAAGGATTACT	left	59.396	0	25	7186195	CP136868.1	7186222,7186242,7186253,7186260,7186269	CP136868.1_7186222_7186269
0	CGAATGCCCGTTGTTGGATG	right	60.179	122	20	7186317	CP136868.1	7186222,7186242,7186253,7186260,7186269	CP136868.1_7186222_7186269
0	TGACCTCTCCGCTGATTGATG	left	59.862	16	21	31964926	CP136868.1	31964963,31964984	CP136868.1_31964963_31964984
0	AACCCAACTGGCACTCTGG	right	59.849	122	19	31965032	CP136868.1	31964963,31964984	CP136868.1_31964963_31964984
0	TGTTTTACACGTGTCAGAAAATCTG	left	58.517	0	25	13337584	CP136869.1	13337609,13337625,13337633,13337658	CP136869.1_13337609_13337658
0	TGCACACAAGTTCACACAGG	right	58.906	130	20	13337714	CP136869.1	13337609,13337625,13337633,13337658	CP136869.1_13337609_13337658
0	CCTTGTAACAACTTCTAAACATGCG	left	59.149	1	25	6710140	CP136869.1	6710177,6710190,6710192,6710209,6710213	CP136869.1_6710177_6710213
0	AAGGCCAGAAAATGAGCCGA	right	59.962	125	20	6710264	CP136869.1	6710177,6710190,6710192,6710209,6710213	CP136869.1_6710177_6710213
0	ACAATGACAGTAATGTGTGGGTC	left	58.928	8	23	20400261	CP136869.1	20400284,20400308,20400327	CP136869.1_20400284_20400327
0	ACAGATCAGAAGGTTGCGTGT	right	59.929	151	21	20400404	CP136869.1	20400284,20400308,20400327	CP136869.1_20400284_20400327
0	GAAAGGCATATAAAAATCCTCTGCC	left	58.549	4	25	16911460	CP136869.1	16911505,16911507,16911530	CP136869.1_16911505_16911530
0	AGCTGCTGTCTATAGGGGTCA	right	60.063	97	21	16911553	CP136869.1	16911505,16911507,16911530	CP136869.1_16911505_16911530
0	GGAGTTCTCATGGGTGCAGT	left	59.674	18	20	9894297	CP136869.1	9894329,9894338,9894351,9894353	CP136869.1_9894329_9894353
0	TGTCTGTGTTTGTGTTGGCTG	right	59.528	110	21	9894389	CP136869.1	9894329,9894338,9894351,9894353	CP136869.1_9894329_9894353
0	ACGTTTCCTGCAAACAACATCA	left	59.575	12	22	23338955	CP136869.1	23338987,23338995,23339008,23339015,23339017	CP136869.1_23338987_23339017
0	TCCTTACTGCTGTCAGGATGT	right	58.46	123	21	23339066	CP136869.1	23338987,23338995,23339008,23339015,23339017	CP136869.1_23338987_23339017
0	AGGAAGAGACCCGGAGAGTC	left	60.034	44	20	3521029	CP136869.1	3521055,3521059	CP136869.1_3521055_3521059
0	CTGCACAGAACGAGTCCTGA	right	59.685	193	20	3521178	CP136869.1	3521055,3521059	CP136869.1_3521055_3521059
0	TGAGCTTGACTAGTTTGTGATGC	left	59.252	10	23	11556900	CP136869.1	11556925,11556949,11556964	CP136869.1_11556925_11556964
0	ACAAGAGCTCTTACTGAGAAAAGTT	right	58.413	154	25	11557044	CP136869.1	11556925,11556949,11556964	CP136869.1_11556925_11556964
0	ATGGGTCAGCTCATCACTGC	left	60.107	12	20	15295897	CP136869.1	15295918,15295929,15295932,15295959	CP136869.1_15295918_15295959
0	ACCCATGCAGATTTGTCTGGT	right	59.924	111	21	15295996	CP136869.1	15295918,15295929,15295932,15295959	CP136869.1_15295918_15295959
0	CGGCACCGCTCCTTAATTTA	left	58.341	3	20	5134794	CP136869.1	5134817,5134827,5134851,5134853,5134865	CP136869.1_5134817_5134865
0	GCCCGGTCCCTGTAATGAC	right	60.153	107	19	5134898	CP136869.1	5134817,5134827,5134851,5134853,5134865	CP136869.1_5134817_5134865
0	TGTAATGTCAACAGCTCTGCTCT	left	59.993	24	23	25221016	CP136869.1	25221039,25221050,25221066	CP136869.1_25221039_25221066
0	CCTCACAAGGCACAAAACCA	right	58.89	135	20	25221127	CP136869.1	25221039,25221050,25221066	CP136869.1_25221039_25221066
0	GGGTTGTCGTGTTCGTGACA	left	60.807	17	20	8329125	CP136869.1	8329146,8329165,8329168,8329182	CP136869.1_8329146_8329182
0	CCAAACTACGCAGAGTAAGTGG	right	59.006	124	22	8329232	CP136869.1	8329146,8329165,8329168,8329182	CP136869.1_8329146_8329182
0	AGCTGTTTTATTGGGGGCTGT	left	60.203	21	21	18662194	CP136869.1	18662229,18662247	CP136869.1_18662229_18662247
0	CCCCTCGTCCAACTTCAACA	right	59.892	145	20	18662318	CP136869.1	18662229,18662247	CP136869.1_18662229_18662247
2	TGGATCTCCTGATGGACTGAGT	left	60.024	49	22	1463655	CP136869.1	1463677,1463680	CP136869.1_1463677_1463680
2	AAATGAGACAACCCAAGCCTT	right	58.037	187	21	1463793	CP136869.1	1463677,1463680	CP136869.1_1463677_1463680
0	AGCAGGGTTAACGGTGTGAG	left	59.965	28	20	21795555	CP136869.1	21795591,21795601	CP136869.1_21795591_21795601
0	CAAAGTGGCTTTTCCCCGTG	right	59.968	144	20	21795671	CP136869.1	21795591,21795601	CP136869.1_21795591_21795601
0	AGAGAGAGAGCCTGCTGTTT	left	58.357	26	20	14338757	CP136869.1	14338777,14338796,14338805	CP136869.1_14338777_14338805
0	TGCACATCGAGCTAACACCT	right	59.392	156	20	14338887	CP136869.1	14338777,14338796,14338805	CP136869.1_14338777_14338805
0	CGGTCATAATCACTGCCAGG	left	58.414	6	20	24213204	CP136869.1	24213224,24213229,24213272	CP136869.1_24213224_24213272
0	TAGGTGACGGGGTAACGGAT	right	60.033	113	20	24213311	CP136869.1	24213224,24213229,24213272	CP136869.1_24213224_24213272
0	GCGGAACTCTGAGAAATGTGC	left	59.871	1	21	17856797	CP136869.1	17856856,17856865,17856870	CP136869.1_17856856_17856870
0	ACTGTGTACTCTGGCAACCT	right	58.575	132	20	17856928	CP136869.1	17856856,17856865,17856870	CP136869.1_17856856_17856870
0	TCATCTTGTGCGAACAACAGG	left	59.127	15	21	12363262	CP136869.1	12363283,12363303,12363321	CP136869.1_12363283_12363321
0	TGGTGGCGCTGGAGATAAA	right	59.013	164	19	12363411	CP136869.1	12363283,12363303,12363321	CP136869.1_12363283_12363321
0	CATGCCCAGCTCCGGTTC	left	60.826	8	18	14508518	CP136870.1	14508538,14508558,14508563,14508575,14508584	CP136870.1_14508538_14508584
0	AGCTGCTTAGTTACTGTTTGCT	right	58.255	115	22	14508625	CP136870.1	14508538,14508558,14508563,14508575,14508584	CP136870.1_14508538_14508584
0	GCCAAGTCGGAGCTCAGG	left	60.125	7	18	7531280	CP136870.1	7531300,7531334,7531347	CP136870.1_7531300_7531347
0	TCTGTGCCTTCACCAAACCA	right	59.743	132	20	7531405	CP136870.1	7531300,7531334,7531347	CP136870.1_7531300_7531347
0	CGCATAGAGCAGGTCTCGAC	left	60.317	9	20	21162370	CP136870.1	21162399,21162418,21162435	CP136870.1_21162399_21162435
0	GCTCTTCAGGTTTCAGCCTCT	right	59.997	124	21	21162485	CP136870.1	21162399,21162418,21162435	CP136870.1_21162399_21162435
0	GGAGGATGTTGTACCGGCAT	left	59.82	2	20	3755024	CP136870.1	3755056,3755059,3755074,3755096	CP136870.1_3755056_3755096
0	GTCAAATGCCACAGCTCAGC	right	60.109	143	20	3755165	CP136870.1	3755056,3755059,3755074,3755096	CP136870.1_3755056_3755096
0	AGCCCAATCACCATAAGACGG	left	60.134	2	21	17514524	CP136870.1	17514547,17514550,17514559,17514575,17514587,17514594,17514596	CP136870.1_17514547_17514596
0	TTGGTGTTCCCTTGCCAAGT	right	60.033	124	20	17514646	CP136870.1	17514547,17514550,17514559,17514575,17514587,17514594,17514596	CP136870.1_17514547_17514596
0	CCAAGCGCAGTAACCATTAATATCT	left	59.53	0	25	11039044	CP136870.1	11039071,11039094,11039112,11039118	CP136870.1_11039071_11039118
0	ACATGGACGCTGGTTAAATGG	right	58.908	149	21	11039193	CP136870.1	11039071,11039094,11039112,11039118	CP136870.1_11039071_11039118
0	CCATGGGGAAGCTGCATTGA	left	60.685	23	20	24542664	CP136870.1	24542690,24542699,24542715	CP136870.1_24542690_24542715
0	TGTAAGGTCAGTGCAGAGGC	right	59.678	117	20	24542758	CP136870.1	24542690,24542699,24542715	CP136870.1_24542690_24542715
0	GGCTTCATCACAAGTCAGGGA	left	59.996	2	21	5678773	CP136870.1	5678807,5678820,5678828,5678845	CP136870.1_5678807_5678845
0	AACGCCTCGAGCTGTGTTTA	right	59.967	115	20	5678886	CP136870.1	5678807,5678820,5678828,5678845	CP136870.1_5678807_5678845
0	GCATTTCTGAGCAGCACCTG	left	59.829	5	20	1879124	CP136870.1	1879155,1879165,1879191,1879193	CP136870.1_1879155_1879193
0	AGGCACAGGACAGTTGTCAA	right	59.454	152	20	1879271	CP136870.1	1879155,1879165,1879191,1879193	CP136870.1_1879155_1879193
4	TGCCTTTGCAGCCTCCC	left	59.923	8	17	22918777	CP136870.1	22918799,22918809,22918820,22918826,22918843	CP136870.1_22918799_22918843
4	ACGTGATTGACAGGTGGGTG	right	60.25	137	20	22918906	CP136870.1	22918799,22918809,22918820,22918826,22918843	CP136870.1_22918799_22918843
0	AGGTCATTCTCAGTTATCCTGTGA	left	58.974	2	24	9286572	CP136870.1	9286604,9286642,9286644	CP136870.1_9286604_9286644
0	CAGCATGCACCACTAAGGGT	right	60.323	106	20	9286676	CP136870.1	9286604,9286642,9286644	CP136870.1_9286604_9286644
0	TGTAATGAGCTGCTCCCACC	left	59.747	36	20	19161425	CP136870.1	19161446,19161461,19161463	CP136870.1_19161446_19161463
0	GTCCTGCTTTCCCCCTGATC	right	60.107	120	20	19161509	CP136870.1	19161446,19161461,19161463	CP136870.1_19161446_19161463
0	ACAACCCTTAATTGTTACTCAGCA	left	58.618	16	24	12645747	CP136870.1	12645773,12645777,12645784,12645805	CP136870.1_12645773_12645805
0	ACTCAGAGAGTTACATCAGGACA	right	58.332	111	23	12645842	CP136870.1	12645773,12645777,12645784,12645805	CP136870.1_12645773_12645805
0	ACCAGGCCAACAGAATTTCAAC	left	59.635	10	22	26388904	CP136870.1	26388941,26388946,26388949,26388963,26388968	CP136870.1_26388941_26388968
0	GGAGTTAGGTTATGACAGGAAAGTT	right	58.526	116	25	26389010	CP136870.1	26388941,26388946,26388949,26388963,26388968	CP136870.1_26388941_26388968
0	ACAAGTAGTTGCAATTACAGATGGC	left	60.106	2	25	15923095	CP136870.1	15923120,15923123,15923133,15923167	CP136870.1_15923120_15923167
0	CTGCCACCTCCCGGTTAATC	right	60.464	117	20	15923210	CP136870.1	15923120,15923123,15923133,15923167	CP136870.1_15923120_15923167
0	CCTGACCTTTGGTTGGACAAA	left	58.616	8	21	20173485	CP136870.1	20173511,20173530,20173541,20173551	CP136870.1_20173511_20173551
0	CCCAACAGGAAGAAGTCTCTTG	right	58.593	157	22	20173634	CP136870.1	20173511,20173530,20173541,20173551	CP136870.1_20173511_20173551
0	GAGCCAGCTGTTCCTCTGAA	left	59.677	3	20	13550013	CP136870.1	13550038,13550048,13550084	CP136870.1_13550038_13550084
0	CACTGAGGTGTGGGAGTTCC	right	59.965	137	20	13550147	CP136870.1	13550038,13550048,13550084	CP136870.1_13550038_13550084
0	CGAGCTCGGTGGAATTTAAACA	left	59.26	16	22	2819369	CP136870.1	2819399,2819420,2819427	CP136870.1_2819399_2819427
0	ACTCCAACACTGACCACTGT	right	58.796	148	20	2819501	CP136870.1	2819399,2819420,2819427	CP136870.1_2819399_2819427
0	AGGTGGTACCCTCTATTTTAGCT	left	58.368	1	23	6545742	CP136870.1	6545773,6545777,6545781,6545799,6545815	CP136870.1_6545773_6545815
0	TCTGGACAGAGAACCTAAGCAC	right	59.437	141	22	6545882	CP136870.1	6545773,6545777,6545781,6545799,6545815	CP136870.1_6545773_6545815
0	ACTGGTTATGGCAGTCTCAGT	left	58.739	7	21	25443741	CP136870.1	25443770,25443772,25443790,25443803,25443808	CP136870.1_25443770_25443808
0	CAGGCGGCAGAATAACGAGA	right	60.179	113	20	25443847	CP136870.1	25443770,25443772,25443790,25443803,25443808	CP136870.1_25443770_25443808
0	TGCCTTGGATGAAGACACACT	left	59.579	17	21	15893785	CP136871.1	15893807,15893811,15893832,15893842	CP136871.1_15893807_15893842
0	GGTCATTCACCCCTGCTACC	right	60.107	113	20	15893881	CP136871.1	15893807,15893811,15893832,15893842	CP136871.1_15893807_15893842
0	ACATGTAAACCAGTTGACAGCC	left	59.115	22	22	23838574	CP136871.1	23838597,23838606,23838609,23838626	CP136871.1_23838597_23838626
0	TCAATTCCAAGCATTTGAGCACT	right	59.425	98	23	23838650	CP136871.1	23838597,23838606,23838609,23838626	CP136871.1_23838597_23838626
0	TCATTCTTCTGGCTCTGGGA	left	58.043	17	20	8495817	CP136871.1	8495839,8495851,8495865,8495874	CP136871.1_8495839_8495874
0	CACACATCTAGGGCTCCAAAC	right	58.64	166	21	8495966	CP136871.1	8495839,8495851,8495865,8495874	CP136871.1_8495839_8495874
0	TCTGTTCACAGGCTGGTAATCT	left	59.094	4	22	4468697	CP136871.1	4468720,4468729,4468731,4468736,4468767	CP136871.1_4468720_4468767
0	GGCTGAAAGACTCCAAGCTCA	right	60.271	118	21	4468811	CP136871.1	4468720,4468729,4468731,4468736,4468767	CP136871.1_4468720_4468767
0	TCTTTCTGTGCAGTGACAAACT	left	58.39	35	22	19843021	CP136871.1	19843044,19843049,19843060	CP136871.1_19843044_19843060
0	CTTGTGCAGGGTTTTCAGGC	right	59.967	132	20	19843118	CP136871.1	19843044,19843049,19843060	CP136871.1_19843044_19843060
0	GTCTGCTCAATTTTGTCAAGGTGA	left	59.963	0	24	12348039	CP136871.1	12348075,12348081,12348091,12348113	CP136871.1_12348075_12348113
0	ACTAGGGTTGCATGTGCTGA	right	59.308	101	20	12348140	CP136871.1	12348075,12348081,12348091,12348113	CP136871.1_12348075_12348113
0	GAGAAGCTGAATCCTTCTGGGA	left	59.497	2	22	27965960	CP136871.1	27965986,27966032	CP136871.1_27965986_27966032
0	TGTTGGGAGGGTCATCTGGA	right	60.179	105	20	27966063	CP136871.1	27965986,27966032	CP136871.1_27965986_27966032
0	GACTCACTTCTGGAGCCAGC	left	60.391	29	20	2267472	CP136871.1	2267496,2267507,2267517	CP136871.1_2267496_2267517
0	TGTGTACCAGCAAAGTGGCA	right	60.107	120	20	2267563	CP136871.1	2267496,2267507,2267517	CP136871.1_2267496_2267517
0	AGTGTGCCATCGCTGCAT	left	60.046	3	18	6594760	CP136871.1	6594817,6594828,6594831	CP136871.1_6594817_6594831
0	ATCCTTCGCGAGCATCTGTT	right	59.823	101	20	6594858	CP136871.1	6594817,6594828,6594831	CP136871.1_6594817_6594831
0	TCTTCAAGGCCATCTTTGACTCA	left	59.927	1	23	30139645	CP136871.1	30139681,30139685,30139689,30139701,30139714,30139718	CP136871.1_30139681_30139718
0	TCCTTTTGGCACAGTGTTCAA	right	58.549	104	21	30139748	CP136871.1	30139681,30139685,30139689,30139701,30139714,30139718	CP136871.1_30139681_30139718
0	GTCAGACAGACAACCCAGAGG	left	59.999	5	21	21943442	CP136871.1	21943473,21943498,21943511	CP136871.1_21943473_21943511
0	CGTATGGGCTTCGTCTTTGC	right	59.626	140	20	21943577	CP136871.1	21943473,21943498,21943511	CP136871.1_21943473_21943511
0	GCCAGGGCTCACAGGAT	left	58.561	12	17	14115501	CP136871.1	14115518,14115549,14115560,14115563	CP136871.1_14115518_14115563
0	TCACCTGCAAAGGGAAAGCA	right	60.106	135	20	14115624	CP136871.1	14115518,14115549,14115560,14115563	CP136871.1_14115518_14115563
0	AGCATACCTGACATCTACGCA	left	58.968	26	21	17891313	CP136871.1	17891336,17891361	CP136871.1_17891336_17891361
0	AGGCGAAATGGACAGTGATAGA	right	59.234	161	22	17891448	CP136871.1	17891336,17891361	CP136871.1_17891336_17891361
0	AGCAAATTCTTAAAAGGGCTGCA	left	59.675	2	23	10557611	CP136871.1	10557639,10557672,10557683	CP136871.1_10557639_10557683
0	TACAGTCCGGGTACACTCCA	right	59.595	96	20	10557705	CP136871.1	10557639,10557672,10557683	CP136871.1_10557639_10557683
0	GCTAACGCTAGCTGAGTTTGT	left	58.662	8	21	26058526	CP136871.1	26058556,26058582,26058592	CP136871.1_26058556_26058592
0	CATTCCCCACTTGCCCATCT	right	60.033	154	20	26058672	CP136871.1	26058556,26058582,26058592	CP136871.1_26058556_26058592
0	GCCTTAATCACGTGTTGAGCC	left	59.869	10	21	3375938	CP136871.1	3375963,3375978,3375982,3375990,3376002	CP136871.1_3375963_3376002
0	CCATACCTCCTCAGCTGGGA	right	60.399	123	20	3376051	CP136871.1	3375963,3375978,3375982,3375990,3376002	CP136871.1_3375963_3376002
4	CGATGATCCACGTCTTTGCC	left	59.347	31	20	5536898	CP136871.1	5536918,5536923,5536932,5536941	CP136871.1_5536918_5536941
4	AGCCGTTTTGATGCTCACAA	right	58.682	111	20	5536978	CP136871.1	5536918,5536923,5536932,5536941	CP136871.1_5536918_5536941
0	TGTCTGCGGTGATAACAGCA	left	59.68	4	20	16925128	CP136871.1	16925165,16925169,16925183,16925190,16925198	CP136871.1_16925165_16925198
0	CACAGTGTCAACAGGGGCTA	right	59.604	140	20	16925264	CP136871.1	16925165,16925169,16925183,16925190,16925198	CP136871.1_16925165_16925198
0	ACAGTTCTCAGTAACACTGTGCT	left	59.867	7	23	9487093	CP136871.1	9487120,9487123,9487160	CP136871.1_9487120_9487160
0	AGGTTCAGGTGACTCTCTGGT	right	60.133	108	21	9487194	CP136871.1	9487120,9487123,9487160	CP136871.1_9487120_9487160
0	CTCCAGCTCCGGCCAAAT	left	59.727	7	18	24929006	CP136871.1	24929024,24929073	CP136871.1_24929024_24929073
0	ATGCTCCTGTGACGTCTCAC	right	59.755	152	20	24929151	CP136871.1	24929024,24929073	CP136871.1_24929024_24929073
0	GTTGCTGAACATGCAGAGCC	left	60.109	10	20	20894650	CP136871.1	20894689,20894714	CP136871.1_20894689_20894714
0	ACCACATCTTGTGTCAGACTGA	right	59.3	139	22	20894779	CP136871.1	20894689,20894714	CP136871.1_20894689_20894714
0	TGTCCTCAGGATGCAAACAGT	left	59.579	20	21	29143304	CP136871.1	29143334,29143350,29143358	CP136871.1_29143334_29143358
0	GAAGAAACAAGGCTGCTGGG	right	59.4	148	20	29143432	CP136871.1	29143334,29143350,29143358	CP136871.1_29143334_29143358
0	ACCATCACTCATGACAGAACCC	left	60.027	1	22	18781394	CP136871.1	18781418,18781427,18781454,18781456,18781467	CP136871.1_18781418_18781467
0	TTTGACGTGAGGGTCAGCAC	right	60.532	142	20	18781535	CP136871.1	18781418,18781427,18781454,18781456,18781467	CP136871.1_18781418_18781467
0	TCTGTTGAAGGTGAAAGGATGTCT	left	59.897	5	24	14059608	CP136872.1	14059641,14059648,14059664,14059677	CP136872.1_14059641_14059677
0	ACACAACAGAGGTCCACTGG	right	59.53	102	20	14059705	CP136872.1	14059641,14059648,14059664,14059677	CP136872.1_14059641_14059677
0	GCAATTTCCCAAGACTGAATCTGT	left	59.781	12	24	7216219	CP136872.1	7216256,7216264,7216274,7216281	CP136872.1_7216256_7216281
0	TGACCACCGCTGTCTTGATC	right	60.037	104	20	7216311	CP136872.1	7216256,7216264,7216274,7216281	CP136872.1_7216256_7216281
0	ACACCTTTCAAATCACGACATGA	left	58.866	0	23	21505735	CP136872.1	21505760,21505791,21505809	CP136872.1_21505760_21505809
0	TTTCTGACTTGGTGCCCAGC	right	60.823	137	20	21505872	CP136872.1	21505760,21505791,21505809	CP136872.1_21505760_21505809
0	AAGGGGAATGCAGATGAGCC	left	60.106	29	20	17595352	CP136872.1	17595382,17595384,17595397	CP136872.1_17595382_17595397
0	ATTGGAAGTGTGCTGCCTGT	right	60.179	97	20	17595420	CP136872.1	17595382,17595384,17595397	CP136872.1_17595382_17595397
0	TGCACCACACTGATTCTTCCA	left	59.857	10	21	25011607	CP136872.1	25011628,25011655,25011659,25011671	CP136872.1_25011628_25011671
0	CAGCCTCTGATGTCCACTGA	right	59.1	148	20	25011745	CP136872.1	25011628,25011655,25011659,25011671	CP136872.1_25011628_25011671
2	TGTTTGAGCACCCAGGTGTT	left	60.034	21	20	3647957	CP136872.1	3647977,3647982,3647986,3647995,3648010	CP136872.1_3647977_3648010
2	GCCATGTTACCTCTGCCGAT	right	60.179	122	20	3648058	CP136872.1	3647977,3647982,3647986,3647995,3648010	CP136872.1_3647977_3648010
0	TGCTTTAAAGTGCAAACAGGTTCT	left	59.84	0	24	10571266	CP136872.1	10571307,10571320,10571340	CP136872.1_10571307_10571340
0	TGGGTCATCATCCTCCTCCA	right	59.657	135	20	10571401	CP136872.1	10571307,10571320,10571340	CP136872.1_10571307_10571340
0	TGAAAGCACAACAGCTGCAG	left	59.617	24	20	19740067	CP136872.1	19740089,19740099,19740103,19740110,19740117	CP136872.1_19740089_19740117
0	CAGACTTGCTGTAAACGGTCA	right	58.52	111	21	19740154	CP136872.1	19740089,19740099,19740103,19740110,19740117	CP136872.1_19740089_19740117
0	CACAGATGTCACATTGTTCCTGT	left	59.183	2	23	26804042	CP136872.1	26804085,26804091,26804098,26804114	CP136872.1_26804085_26804114
0	GTCTTCAGGTAAACTAGTGTCTCCT	right	59.522	145	25	26804185	CP136872.1	26804085,26804091,26804098,26804114	CP136872.1_26804085_26804114
0	GGTGGTAGCCCAAAACTCTTT	left	58.406	0	21	12301345	CP136872.1	12301370,12301403,12301410,12301419	CP136872.1_12301370_12301419
0	ACACTTCCACTGATGACAAGCT	right	59.895	99	22	12301444	CP136872.1	12301370,12301403,12301410,12301419	CP136872.1_12301370_12301419
0	TCATGCCACTCTTTACCCAATAAT	left	58.234	11	24	23286983	CP136872.1	23287020,23287035,23287037,23287046	CP136872.1_23287020_23287046
0	TGGACACTCACACACACTTGA	right	59.447	160	21	23287132	CP136872.1	23287020,23287035,23287037,23287046	CP136872.1_23287020_23287046
0	TCAGATCAAGGAGGAGAATCACA	left	58.644	1	23	15972506	CP136872.1	15972537,15972550,15972579	CP136872.1_15972537_15972579
0	CCCGTAATGACATCTAAACCGG	right	58.872	111	22	15972616	CP136872.1	15972537,15972550,15972579	CP136872.1_15972537_15972579
0	ACCAAGATTTATGGACATCTGCA	left	58.141	34	23	1917450	CP136872.1	1917475,1917490	CP136872.1_1917475_1917490
0	CCACACACGGTCTCTTCTGT	right	59.611	106	20	1917522	CP136872.1	1917475,1917490	CP136872.1_1917475_1917490
0	GCATAGACCCCCACACATGT	left	59.744	0	20	5367592	CP136872.1	5367644,5367660,5367666	CP136872.1_5367644_5367666
0	TGCACTTGTGTCAGGTGGAA	right	59.746	121	20	5367713	CP136872.1	5367644,5367660,5367666	CP136872.1_5367644_5367666
0	ACACACTGGACCTTTCTTGTCA	left	59.761	16	22	8961335	CP136872.1	8961359,8961393	CP136872.1_8961359_8961393
0	GGCCAGTTACTGACAGATACCA	right	59.5	132	22	8961451	CP136872.1	8961359,8961393	CP136872.1_8961359_8961393
0	TGCAAGCATGGCATCGATAG	left	58.768	11	20	18636198	CP136872.1	18636230,18636238,18636254,18636261	CP136872.1_18636230_18636261
0	TCACTCGCCTAAATTCTCTGGT	right	59.168	155	22	18636342	CP136872.1	18636230,18636238,18636254,18636261	CP136872.1_18636230_18636261
0	TTTCTTAAGCTGGCGAATTAGAGA	left	58.269	19	24	15077567	CP136872.1	15077591,15077615,15077622	CP136872.1_15077591_15077622
0	TGAGTTGCGCTCTTAGCTTTG	right	59.199	119	21	15077667	CP136872.1	15077591,15077615,15077622	CP136872.1_15077591_15077622
0	CGTACTCTGAGTTTTGCCCG	left	58.932	28	20	13132840	CP136872.1	13132861,13132867,13132883,13132886	CP136872.1_13132861_13132886
0	GGCCACGTTCTTCTTTGTGC	right	60.318	152	20	13132964	CP136872.1	13132861,13132867,13132883,13132886	CP136872.1_13132861_13132886
0	GTCATAAGGTTTCCAATCACGTCA	left	59.306	1	24	25906777	CP136872.1	25906804,25906846,25906850	CP136872.1_25906804_25906850
0	GAGGTCCTCACACACACAGG	right	59.966	107	20	25906883	CP136872.1	25906804,25906846,25906850	CP136872.1_25906804_25906850
0	AGGTGTCAAACGCATATATGATGA	left	58.39	19	24	20625304	CP136872.1	20625355,20625357,20625359	CP136872.1_20625355_20625359
0	TCATTGTGTTGTGAGCCCATC	right	58.838	95	21	20625380	CP136872.1	20625355,20625357,20625359	CP136872.1_20625355_20625359
0	AACAATCTGCTGCCTCCTGC	left	60.964	37	20	27746552	CP136872.1	27746581,27746589	CP136872.1_27746581_27746589
0	TACTGACACACACACGCACA	right	59.826	120	20	27746635	CP136872.1	27746581,27746589	CP136872.1_27746581_27746589
0	GCAAATGCTGTTGTTGTGCC	left	59.417	1	20	13785218	CP136873.1	13785242,13785257,13785287,13785291	CP136873.1_13785242_13785291
0	TTCAGTCTTTTCGCGTCTGC	right	59.141	94	20	13785311	CP136873.1	13785242,13785257,13785287,13785291	CP136873.1_13785242_13785291
0	TGGTTTCAGTCTGTCCACCAG	left	59.859	9	21	20978543	CP136873.1	20978571,20978574,20978576,20978582,20978599,20978601,20978608	CP136873.1_20978571_20978608
0	GGGATGAACTGGAGCTGGAG	right	59.82	113	20	20978647	CP136873.1	20978571,20978574,20978576,20978582,20978599,20978601,20978608	CP136873.1_20978571_20978608
0	TGTGAGGACTTAAATTCTTTGGGA	left	58.052	8	24	6964000	CP136873.1	6964031,6964043,6964049,6964066	CP136873.1_6964031_6964066
0	CACCGTCCCAATCATCCCAA	right	60.035	157	20	6964149	CP136873.1	6964031,6964043,6964049,6964066	CP136873.1_6964031_6964066
0	ACCTGTAACTGTGATAATCCCTCC	left	59.591	16	24	17587107	CP136873.1	17587132,17587134,17587148,17587165	CP136873.1_17587132_17587165
0	TGGATCTTACTTTGGCTCATTCAA	right	58.431	143	24	17587234	CP136873.1	17587132,17587134,17587148,17587165	CP136873.1_17587132_17587165
0	ACTCCCATGTGACATGAATGCT	left	60.026	2	22	10389619	CP136873.1	10389663,10389674,10389691	CP136873.1_10389663_10389691
0	AGTGTGTGTGCATGTGTAGTCA	right	60.159	127	22	10389744	CP136873.1	10389663,10389674,10389691	CP136873.1_10389663_10389691
0	TGTGGATGTCACCAGTTAGCA	left	59.303	2	21	3780519	CP136873.1	3780544,3780574,3780591	CP136873.1_3780544_3780591
0	TCACCACGAAACGTCTGTCC	right	60.249	109	20	3780626	CP136873.1	3780544,3780574,3780591	CP136873.1_3780544_3780591
0	AGACGGCTTCGGTCTCTAG	left	58.217	0	19	24437958	CP136873.1	24437985,24437990,24438003,24438012,24438015,24438020,24438022,24438026,24438032	CP136873.1_24437985_24438032
0	ACATCCTCCACCTGTCTCCC	right	60.619	100	20	24438058	CP136873.1	24437985,24437990,24438003,24438012,24438015,24438020,24438022,24438026,24438032	CP136873.1_24437985_24438032
0	TTGCTAAGCTACATGCAGAGAAA	left	58.421	2	23	8666645	CP136873.1	8666668,8666670,8666690,8666704,8666714,8666717	CP136873.1_8666668_8666717
0	CAGTCAAAGAGGGCAGGAGG	right	60.036	118	20	8666761	CP136873.1	8666668,8666670,8666690,8666704,8666714,8666717	CP136873.1_8666668_8666717
0	AGGTATCGCAGGCAAAGTGG	left	60.393	8	20	15725489	CP136873.1	15725525,15725529,15725531,15725555	CP136873.1_15725525_15725555
0	TCCCTTTCAGCCTCTGTCCT	right	60.179	122	20	15725603	CP136873.1	15725525,15725529,15725531,15725555	CP136873.1_15725525_15725555
0	CTCTCCCGTTTGTGTCCAC	left	58.086	0	19	19257844	CP136873.1	19257878,19257881,19257902,19257918	CP136873.1_19257878_19257918
0	CAGGTGGCCATTAGCTTGGA	right	60.034	141	20	19257985	CP136873.1	19257878,19257881,19257902,19257918	CP136873.1_19257878_19257918
0	TCCTGAGGACCTGGACACAA	left	60.105	3	20	22696019	CP136873.1	22696051,22696071,22696090	CP136873.1_22696051_22696090
0	TTGTGGACCTGATCAACGGT	right	59.238	131	20	22696147	CP136873.1	22696051,22696071,22696090	CP136873.1_22696051_22696090
0	CCAATCTTTGCTATTGTGTGATGAT	left	58.197	0	25	11957117	CP136873.1	11957142,11957144,11957169,11957191	CP136873.1_11957142_11957191
0	GGGAAGTCTTGGCCCAGATC	right	60.107	120	20	11957237	CP136873.1	11957142,11957144,11957169,11957191	CP136873.1_11957142_11957191
0	TCTGTATCCGTGATTGGTGTGT	left	59.435	30	22	1984909	CP136873.1	1984932,1984934,1984953	CP136873.1_1984932_1984953
0	AATCACACAGCAGACGCACT	right	60.25	135	20	1985014	CP136873.1	1984932,1984934,1984953	CP136873.1_1984932_1984953
0	GAGGAGTAGCGTGCCGAAAT	left	60.179	6	20	5507161	CP136873.1	5507187,5507191,5507205,5507229	CP136873.1_5507187_5507229
0	TGATCGGCTATCAGCACTGT	right	58.885	117	20	5507272	CP136873.1	5507187,5507191,5507205,5507229	CP136873.1_5507187_5507229
0	AGAACCAGCGCCTGAATGTA	left	59.387	1	20	26130470	CP136873.1	26130514,26130543	CP136873.1_26130514_26130543
0	CGACGTATTCCGAGCTCCTC	right	60.041	149	20	26130618	CP136873.1	26130514,26130543	CP136873.1_26130514_26130543
0	TGACTGCTCCTCTCTGCAAC	left	59.68	11	20	14677155	CP136873.1	14677175,14677177,14677187,14677190,14677208,14677218	CP136873.1_14677175_14677218
0	TGAAGTGCCGTGTACACCTC	right	59.967	157	20	14677301	CP136873.1	14677175,14677177,14677187,14677190,14677208,14677218	CP136873.1_14677175_14677218
0	AGGAAAAGGTACAGTGGGGAG	left	59.014	10	21	20129113	CP136873.1	20129134,20129146,20129173,20129177	CP136873.1_20129134_20129177
0	ACCTGCCGACACAAAACAGA	right	60.107	109	20	20129212	CP136873.1	20129134,20129146,20129173,20129177	CP136873.1_20129134_20129177
0	AGGTTCACGGCTCACACTTA	left	58.955	0	20	9538865	CP136873.1	9538901,9538906,9538910,9538925,9538939	CP136873.1_9538901_9538939
0	TGAATCCTCAGGTGGGGTCT	right	59.881	127	20	9538992	CP136873.1	9538901,9538906,9538910,9538925,9538939	CP136873.1_9538901_9538939
0	GTGTAAAGTCACACAAAATGCATGT	left	59.252	3	25	7854909	CP136873.1	7854959,7854966,7854970,7854980	CP136873.1_7854959_7854980
0	TGTGTCAACAATTCCTCAGCG	right	59.127	97	21	7855003	CP136873.1	7854959,7854966,7854970,7854980	CP136873.1_7854959_7854980
2	AGGATTTAGTGGCACCTAGTGG	left	59.494	1	22	16598527	CP136873.1	16598553,16598586,16598600	CP136873.1_16598553_16598600
2	TGGCTATATATTGGCGGCCA	right	59.012	114	20	16598640	CP136873.1	16598553,16598586,16598600	CP136873.1_16598553_16598600
0	GGCATGGAAACTGACAAACCC	left	59.999	14	21	13671925	CP136874.1	13671953,13671955,13671972,13671978,13671983,13671985	CP136874.1_13671953_13671985
0	AGGACAAGGGGCTAGGATGT	right	59.955	104	20	13672015	CP136874.1	13671953,13671955,13671972,13671978,13671983,13671985	CP136874.1_13671953_13671985
0	TCTGTTGTGCATGGATTAAAGTTCT	left	59.23	4	25	7226662	CP136874.1	7226688,7226691,7226700,7226709,7226732	CP136874.1_7226688_7226732
0	TCAGCCATCAGCCAACACTT	right	59.889	126	20	7226784	CP136874.1	7226688,7226691,7226700,7226709,7226732	CP136874.1_7226688_7226732
0	TCTTCAAAATGTCCGCAATAGAGT	left	58.754	12	24	20526307	CP136874.1	20526348,20526359,20526366,20526369	CP136874.1_20526348_20526369
0	GGTTTGCTCAGCCTGACATC	right	59.193	124	20	20526419	CP136874.1	20526348,20526359,20526366,20526369	CP136874.1_20526348_20526369
0	TCCTGATGAAGCTCAGACAAACA	left	59.929	1	23	23897020	CP136874.1	23897053,23897076,23897082,23897093	CP136874.1_23897053_23897093
0	CCCTGAGCCTGAAAACCTCC	right	60.323	120	20	23897139	CP136874.1	23897053,23897076,23897082,23897093	CP136874.1_23897053_23897093
2	GTGACAGGTAGGTGCCGTTA	left	59.395	4	20	17054446	CP136874.1	17054471,17054484,17054508,17054516	CP136874.1_17054471_17054516
2	CCATGTTGGCTGTACTGCTTC	right	59.53	142	21	17054584	CP136874.1	17054471,17054484,17054508,17054516	CP136874.1_17054471_17054516
0	CTCCTTTCTTCCCCAGAGGC	left	59.746	14	20	3482790	CP136874.1	3482829,3482837,3482841,3482843,3482850	CP136874.1_3482829_3482850
0	GCTTCAGTCCAGGCTACTGT	right	59.389	152	20	3482928	CP136874.1	3482829,3482837,3482841,3482843,3482850	CP136874.1_3482829_3482850
0	TTGCACGGCCTCTGTAGTTT	left	59.892	10	20	10605967	CP136874.1	10605997,10606004,10606031	CP136874.1_10605997_10606031
0	CCTATGGACTTCATTTACCTGCC	right	58.862	130	23	10606087	CP136874.1	10605997,10606004,10606031	CP136874.1_10605997_10606031
0	CTGTCTGCAGGCCTTTAATGC	left	59.866	40	21	5425583	CP136874.1	5425604,5425613,5425617	CP136874.1_5425604_5425617
0	TTCCTCCTGTTCAGGCAACA	right	59.157	105	20	5425648	CP136874.1	5425604,5425613,5425617	CP136874.1_5425604_5425617
0	GCGGTCATGCTGTCATCTCT	left	60.179	4	20	18815653	CP136874.1	18815696,18815710,18815712,18815723	CP136874.1_18815696_18815723
0	TGCTGTTTGCTGGTTTGGTT	right	59.099	146	20	18815795	CP136874.1	18815696,18815710,18815712,18815723	CP136874.1_18815696_18815723
0	TCTTGGCAACCTTTTAACAGCA	left	58.973	2	22	8888043	CP136874.1	8888066,8888079,8888098,8888115	CP136874.1_8888066_8888115
0	GGGCTTGCAGTAATGAGACCA	right	60.34	107	21	8888148	CP136874.1	8888066,8888079,8888098,8888115	CP136874.1_8888066_8888115
0	CATGGTAGATGTGCCAAGAAGG	left	59.052	5	22	22399167	CP136874.1	22399193,22399199,22399207,22399215,22399236	CP136874.1_22399193_22399236
0	TCGTTACTTGCAGCTCTAGTCC	right	59.836	101	22	22399263	CP136874.1	22399193,22399199,22399207,22399215,22399236	CP136874.1_22399193_22399236
0	TGAAGCTGAAGTATGGCTGGA	left	59.091	2	21	15412877	CP136874.1	15412910,15412912,15412935,15412939,15412945,15412949	CP136874.1_15412910_15412949
0	CCTGCAGCTTAGAAACGATGA	right	58.379	113	21	15412988	CP136874.1	15412910,15412912,15412935,15412939,15412945,15412949	CP136874.1_15412910_15412949
0	ACACATCCCAGACTGAAGGG	left	59.013	10	20	25497181	CP136874.1	25497202,25497243,25497245	CP136874.1_25497202_25497245
0	AAGCTCTTCCTCACGTCACG	right	60.039	94	20	25497265	CP136874.1	25497202,25497243,25497245	CP136874.1_25497202_25497245
0	CAGATCTCGATTGAAAGTCTTACCA	left	58.667	5	25	12205781	CP136874.1	12205808,12205826,12205850	CP136874.1_12205808_12205850
0	ACAAGCTTGTGTTCAAAACGAGA	right	59.561	133	23	12205909	CP136874.1	12205808,12205826,12205850	CP136874.1_12205808_12205850
0	TTTGGTCTCTATAGCTAATTTCCCC	left	58.162	19	25	4409300	CP136874.1	4409325,4409327,4409355	CP136874.1_4409325_4409355
0	AAGCTACCTGCAACAGCACT	right	59.891	168	20	4409449	CP136874.1	4409325,4409327,4409355	CP136874.1_4409325_4409355
0	TTGATTAGTGGACGACCCGC	left	60.109	3	20	2481458	CP136874.1	2481481,2481519,2481529	CP136874.1_2481481_2481529
0	GGGCAGAGTCCATGCTTTGA	right	60.323	113	20	2481568	CP136874.1	2481481,2481519,2481529	CP136874.1_2481481_2481529
0	ACTGATGACTAGTCCAGGGTGT	left	60.225	0	22	11396309	CP136874.1	11396335,11396341,11396343,11396367,11396373,11396383	CP136874.1_11396335_11396383
0	TCCCAAAATGAGCACTGACCA	right	59.855	109	21	11396418	CP136874.1	11396335,11396341,11396343,11396367,11396373,11396383	CP136874.1_11396335_11396383
0	AGGGTAACAGGATGATGACACA	left	58.819	0	22	21501532	CP136874.1	21501594,21501606	CP136874.1_21501594_21501606
0	CAGCTGGAAAGGGTTAGGCA	right	59.962	107	20	21501639	CP136874.1	21501594,21501606	CP136874.1_21501594_21501606
0	TTCGCTCTCTTCTCCTCTGC	left	59.186	14	20	24692537	CP136874.1	24692563,24692576,24692578,24692585,24692590,24692597	CP136874.1_24692563_24692597
0	ACATGAATGCTGACGGGGAG	right	60.108	132	20	24692655	CP136874.1	24692563,24692576,24692578,24692585,24692590,24692597	CP136874.1_24692563_24692597
0	ACCCCAATTTTCTTCCCATTTCTG	left	59.713	0	24	16273401	CP136874.1	16273436,16273447,16273450,16273466,16273475	CP136874.1_16273436_16273475
0	CCATCTATGGCCGCACTTTC	right	59.053	148	20	16273549	CP136874.1	16273436,16273447,16273450,16273466,16273475	CP136874.1_16273436_16273475
0	ATGCAAGAGGCCAGGGTCTA	left	60.622	4	20	12142559	CP136875.1	12142601,12142603,12142609,12142629	CP136875.1_12142601_12142629
0	GTGCAAAAACACTGTGCTGTG	right	59.345	95	21	12142650	CP136875.1	12142601,12142603,12142609,12142629	CP136875.1_12142601_12142629
0	AGGAACATCATTACGTTGATAGCT	left	58.081	4	24	5913450	CP136875.1	5913476,5913487,5913491,5913503,5913520	CP136875.1_5913476_5913520
0	AACTTGGGGACACTGTCGAC	right	59.894	94	20	5913540	CP136875.1	5913476,5913487,5913491,5913503,5913520	CP136875.1_5913476_5913520
0	TGCCATTTAGACATGCTCTTTCT	left	58.407	1	23	17726486	CP136875.1	17726522,17726529,17726549,17726559	CP136875.1_17726522_17726559
0	GCAACATCTGGAGGACCCAA	right	59.962	108	20	17726593	CP136875.1	17726522,17726529,17726549,17726559	CP136875.1_17726522_17726559
0	CTCATGCTTGGAAGGGGAGG	left	60.107	7	20	9012789	CP136875.1	9012820,9012851,9012856	CP136875.1_9012820_9012856
0	TGGACGTTTGTTGGAGTGGA	right	59.458	150	20	9012932	CP136875.1	9012820,9012851,9012856	CP136875.1_9012820_9012856
0	AGGAAAGGACTTAGGAGCTGAT	left	58.27	9	22	3134864	CP136875.1	3134894,3134909,3134916,3134919,3134923,3134929	CP136875.1_3134894_3134929
0	GAAACTTGTTTTGATGCACGACA	right	58.898	139	23	3134994	CP136875.1	3134894,3134909,3134916,3134919,3134923,3134929	CP136875.1_3134894_3134929
0	TGCTTTTCAGGCCTGACTTG	left	58.679	0	20	20246333	CP136875.1	20246367,20246379,20246384,20246407	CP136875.1_20246367_20246407
0	GCAACAGCTGAGAAACAAGCA	right	59.934	134	21	20246467	CP136875.1	20246367,20246379,20246384,20246407	CP136875.1_20246367_20246407
0	TCTAGCTTCTCCCCCACCTG	left	60.326	13	20	14860963	CP136875.1	14861001,14861007,14861018,14861024	CP136875.1_14861001_14861024
0	AGACACTAGCTCAAGTCAAGACA	right	59.108	161	23	14861111	CP136875.1	14861001,14861007,14861018,14861024	CP136875.1_14861001_14861024
0	TCCATTCATTTGAACGGGGGT	left	59.924	9	21	4491323	CP136875.1	4491347,4491357,4491359,4491372,4491377,4491380,4491388	CP136875.1_4491347_4491388
0	CGCTCAACCACTGCTCAAAC	right	60.041	128	20	4491442	CP136875.1	4491347,4491357,4491359,4491372,4491377,4491380,4491388	CP136875.1_4491347_4491388
0	AATTGTACAGGGTCCCGTCG	left	59.752	14	20	1610074	CP136875.1	1610097,1610105,1610109,1610111,1610126,1610134	CP136875.1_1610097_1610134
0	TGTTGTGAGCTGTGAGGGAC	right	59.893	131	20	1610191	CP136875.1	1610097,1610105,1610109,1610111,1610126,1610134	CP136875.1_1610097_1610134
0	TCAGACTGTTATCACCTGAACCA	left	59.099	3	23	10550341	CP136875.1	10550371,10550375,10550412	CP136875.1_10550371_10550412
0	GACTGCTGGCTGGACTAAAGA	right	59.724	131	21	10550469	CP136875.1	10550371,10550375,10550412	CP136875.1_10550371_10550412
0	AGTACACACAAGAAACACTTTTTGT	left	58.023	5	25	7483146	CP136875.1	7483171,7483187,7483215	CP136875.1_7483171_7483215
0	AGGGGATGAAAGAAAGGCGT	right	59.301	120	20	7483261	CP136875.1	7483171,7483187,7483215	CP136875.1_7483171_7483215
0	TGTGAGTAAACCAGCCATTATCTTG	left	59.352	5	25	13442916	CP136875.1	13442943,13442953,13442972,13442977,13442985	CP136875.1_13442943_13442985
0	GGCTTTAGAGACCAGACACCA	right	59.376	110	21	13443021	CP136875.1	13442943,13442953,13442972,13442977,13442985	CP136875.1_13442943_13442985
0	AAACTCAGCCAATGACCTGTT	left	58.051	17	21	16371664	CP136875.1	16371710,16371715,16371721	CP136875.1_16371710_16371721
0	CGTGCTGCTTTCAAGTGCAA	right	60.249	151	20	16371798	CP136875.1	16371710,16371715,16371721	CP136875.1_16371710_16371721
0	GTGAGGGAACTGATGGCTCA	left	59.385	15	20	19016923	CP136875.1	19016947,19016976,19016982	CP136875.1_19016947_19016982
0	GGCGGCTTATTCGTTATGCC	right	59.763	98	20	19017006	CP136875.1	19016947,19016976,19016982	CP136875.1_19016947_19016982
0	GGGTGGACCTTTACAGGAAATCA	left	60.245	22	23	900172	CP136875.1	900197,900206,900209,900212,900214,900224	CP136875.1_900197_900224
0	ACCTGAACTGTCCCTTTATGGT	right	59.013	100	22	900250	CP136875.1	900197,900206,900209,900212,900214,900224	CP136875.1_900197_900224
0	CACCTCACCCTGTCAGACAG	left	59.68	3	20	6744113	CP136875.1	6744138,6744146,6744150,6744152,6744184	CP136875.1_6744138_6744184
0	CTGCCTCATCTCCATGGGTT	right	59.45	131	20	6744241	CP136875.1	6744138,6744146,6744150,6744152,6744184	CP136875.1_6744138_6744184
0	TCAGCTTGCAGTGGGAAAAT	left	58	0	20	7806137	CP136876.1	7806175,7806193,7806205,7806211	CP136876.1_7806175_7806211
0	TGATGACTGTGTGAGCCCTG	right	59.677	94	20	7806231	CP136876.1	7806175,7806193,7806205,7806211	CP136876.1_7806175_7806211
0	TGCTTTGACTGACAGGTAGGT	left	58.953	3	21	11643892	CP136876.1	11643915,11643920,11643927,11643934,11643963	CP136876.1_11643915_11643963
0	GTTCTTCTTCCGCCTCCTGG	right	60.392	126	20	11644015	CP136876.1	11643915,11643920,11643927,11643934,11643963	CP136876.1_11643915_11643963
0	CCACAAAGCTGCTGCCTG	left	59.351	18	18	3580017	CP136876.1	3580035,3580039,3580062,3580069,3580073	CP136876.1_3580035_3580073
0	TGCCTGGTAGGACACTCTGA	right	59.886	162	20	3580161	CP136876.1	3580035,3580039,3580062,3580069,3580073	CP136876.1_3580035_3580073
0	GCAGTTAAAATTGCTTTTCAGCCT	left	59.248	6	24	5669891	CP136876.1	5669931,5669940,5669959	CP136876.1_5669931_5669959
0	CCAGAGAAGATCGCCTCCAT	right	58.953	155	20	5670040	CP136876.1	5669931,5669940,5669959	CP136876.1_5669931_5669959
0	ACGAAGGGGAACAAAAAGTCTCT	left	60.118	9	23	13571342	CP136876.1	13571369,13571389,13571407	CP136876.1_13571369_13571407
0	CCATGATCCGAGAGTGGAGC	right	59.967	118	20	13571451	CP136876.1	13571369,13571389,13571407	CP136876.1_13571369_13571407
0	CTGGAGGAGCTGGGAGAGTT	left	60.617	33	20	9718511	CP136876.1	9718534,9718550,9718552	CP136876.1_9718534_9718552
0	GCATGTGATGGTCATCGAGGA	right	60.203	182	21	9718660	CP136876.1	9718534,9718550,9718552	CP136876.1_9718534_9718552
0	AGTGAAGCTCCACCTCTGTC	left	59.027	0	20	1618521	CP136876.1	1618552,1618558,1618560,1618577,1618590,1618595	CP136876.1_1618552_1618595
0	AGCAGAGTCCTACCTGAGCT	right	59.665	105	20	1618626	CP136876.1	1618552,1618558,1618560,1618577,1618590,1618595	CP136876.1_1618552_1618595
0	CTTATGTTGGAGCCCAGCGT	left	60.393	1	20	10725932	CP136876.1	10725956,10725986,10725993,10726005	CP136876.1_10725956_10726005
0	AGCATCTTTCAGTTCGGCCA	right	59.963	139	20	10726070	CP136876.1	10725956,10725986,10725993,10726005	CP136876.1_10725956_10726005
0	TGTGGTTATTGATGTCTCTGACTTT	left	58.466	15	25	2544953	CP136876.1	2544983,2544986,2545004,2545012	CP136876.1_2544983_2545012
0	CCTCGGATCAGTCCAGGAAAC	right	60.135	162	21	2545100	CP136876.1	2544983,2544986,2545004,2545012	CP136876.1_2544983_2545012
0	ACATGTACGACCCTGTCAGC	left	59.753	4	20	4623359	CP136876.1	4623408,4623426,4623429	CP136876.1_4623408_4623429
0	TTTGTAGCCGGAGTCCAACG	right	60.32	116	20	4623471	CP136876.1	4623408,4623426,4623429	CP136876.1_4623408_4623429
0	TGTGAGACAGTGAGGCACAG	left	59.61	9	20	6746145	CP136876.1	6746189,6746210	CP136876.1_6746189_6746210
0	GAATGCCCACAGGGTTGTCA	right	60.539	110	20	6746246	CP136876.1	6746189,6746210	CP136876.1_6746189_6746210
0	TCTTGGCTGCATATTTTAGGGGA	left	59.796	7	23	14049512	CP136877.1	14049542,14049550,14049579	CP136877.1_14049542_14049579
0	CCCTTTCCCATCTGACAGCA	right	59.671	140	20	14049645	CP136877.1	14049542,14049550,14049579	CP136877.1_14049542_14049579
0	AGGATGGATCTCCTCACAGCT	left	60.062	17	21	21076345	CP136877.1	21076370,21076373,21076378,21076383,21076402	CP136877.1_21076370_21076402
0	ACACCCATCTGAGTCTCCTGT	right	60.203	152	21	21076480	CP136877.1	21076370,21076373,21076378,21076383,21076402	CP136877.1_21076370_21076402
0	GCAATGGTCAGGTACTTGTGC	left	59.8	2	21	7644529	CP136877.1	7644560,7644565,7644577,7644588,7644591,7644601	CP136877.1_7644560_7644601
0	TCTACAGGCTGTCTCCCTCC	right	60.033	105	20	7644632	CP136877.1	7644560,7644565,7644577,7644588,7644591,7644601	CP136877.1_7644560_7644601
0	ACCAAATTCATGCCAGTTTCCA	left	59.029	5	22	4175204	CP136877.1	4175240,4175266,4175269,4175273	CP136877.1_4175240_4175273
0	ACTGGCCCACATTTACTGTCA	right	59.576	135	21	4175334	CP136877.1	4175240,4175266,4175269,4175273	CP136877.1_4175240_4175273
0	CAGTCTTGTACCTCTCGGCG	left	60.179	2	20	17604228	CP136877.1	17604256,17604261,17604273,17604284,17604300	CP136877.1_17604256_17604300
0	GACCATCTGAAGCCCACCTG	right	60.394	104	20	17604330	CP136877.1	17604256,17604261,17604273,17604284,17604300	CP136877.1_17604256_17604300
0	TGCCAATTTATATGAAATGCTGCTT	left	58.416	3	25	24553379	CP136877.1	24553412,24553421,24553424,24553450	CP136877.1_24553412_24553450
0	TGATTTGTTGGTCTCCAGTCGT	right	59.896	136	22	24553512	CP136877.1	24553412,24553421,24553424,24553450	CP136877.1_24553412_24553450
0	TTTCCTTCCTCATTGTAATTCTCCA	left	58.211	2	25	10737296	CP136877.1	10737321,10737346,10737358,10737368	CP136877.1_10737321_10737368
0	GGGCGGGATCTACACTGTTC	right	60.179	150	20	10737444	CP136877.1	10737321,10737346,10737358,10737368	CP136877.1_10737321_10737368
0	TGTAGGTGTGTGTGTGAGTGT	left	59.171	21	21	2133178	CP136877.1	2133199,2133229,2133231	CP136877.1_2133199_2133231
0	AGCTGACTTTGGTCGAGAGG	right	59.394	113	20	2133270	CP136877.1	2133199,2133229,2133231	CP136877.1_2133199_2133231
0	CCCCTCAAAGAATCGCTACCC	left	60.475	6	21	15879343	CP136877.1	15879364,15879370,15879384,15879407,15879411	CP136877.1_15879364_15879411
0	CCCATTGGACCAATTTGCCG	right	60.108	120	20	15879457	CP136877.1	15879364,15879370,15879384,15879407,15879411	CP136877.1_15879364_15879411
0	GGAACTGCAGTTTTTGGCACT	left	59.863	6	21	22807896	CP136877.1	22807924,22807935,22807943,22807964	CP136877.1_22807924_22807964
0	TGAACTCAAGAACCCCTCCA	right	58.186	147	20	22808037	CP136877.1	22807924,22807935,22807943,22807964	CP136877.1_22807924_22807964
0	GCTGGTCATCCAACAACCAC	left	59.402	12	20	26210610	CP136877.1	26210630,26210646,26210654,26210672	CP136877.1_26210630_26210672
0	TTCATCGAAACAGACCGCCA	right	59.966	109	20	26210707	CP136877.1	26210630,26210646,26210654,26210672	CP136877.1_26210630_26210672
0	ATGTGAAAAACGCGCGTGT	left	59.646	0	19	19562256	CP136877.1	19562301,19562304,19562320,19562330	CP136877.1_19562301_19562330
0	AGCCACACATCAGATCACAGA	right	59.095	99	21	19562355	CP136877.1	19562301,19562304,19562320,19562330	CP136877.1_19562301_19562330
0	TGGTCCAAAACACCTGTGGT	left	59.667	5	20	5897355	CP136877.1	5897401,5897419,5897424	CP136877.1_5897401_5897424
0	AGAACACTGCGGAACTCTGT	right	59.247	142	20	5897492	CP136877.1	5897401,5897419,5897424	CP136877.1_5897401_5897424
0	GTCCAACTGACACCTGCCG	left	60.961	25	19	9148051	CP136877.1	9148085,9148092,9148098,9148100	CP136877.1_9148085_9148100
0	AGCGACCGAGTCATCCTGTA	right	60.394	155	20	9148181	CP136877.1	9148085,9148092,9148098,9148100	CP136877.1_9148085_9148100
0	ACCATTATTTTGAAGTGCAACGTG	left	59.018	19	24	12320202	CP136877.1	12320229,12320249,12320257	CP136877.1_12320229_12320257
0	CCGTTGCCTTTATTGTCTGCC	right	60.135	166	21	12320349	CP136877.1	12320229,12320249,12320257	CP136877.1_12320229_12320257
0	TTGACTTGACGGTTGCACCA	left	60.393	7	20	18585617	CP136877.1	18585658,18585666,18585677,18585684	CP136877.1_18585658_18585684
0	TGGAACATGGTGCATGAAGC	right	59.11	96	20	18585706	CP136877.1	18585658,18585666,18585677,18585684	CP136877.1_18585658_18585684
0	CTCTGTGGCCGTGCTTCTTT	left	60.886	4	20	3178060	CP136877.1	3178110,3178120,3178130	CP136877.1_3178110_3178130
0	CGGCGGGTTAGAGTGATGAA	right	59.825	102	20	3178158	CP136877.1	3178110,3178120,3178130	CP136877.1_3178110_3178130
0	TGCAGCTGTAAGAAGTGAAGTT	left	58.191	2	22	23648343	CP136877.1	23648384,23648399,23648401,23648403,23648415	CP136877.1_23648384_23648415
0	GCTCTACCTAACTGACTAAAACACT	right	58.31	149	25	23648490	CP136877.1	23648384,23648399,23648401,23648403,23648415	CP136877.1_23648384_23648415
0	AGGACGTAACCTGCTGAATGT	left	59.376	5	21	6727546	CP136877.1	6727571,6727573,6727611,6727615	CP136877.1_6727571_6727615
0	TGTAAGAGGACTGTTGGGCTG	right	59.652	109	21	6727650	CP136877.1	6727571,6727573,6727611,6727615	CP136877.1_6727571_6727615
0	AGAGCATGAATGAGGCCTGT	left	59.082	13	20	14993529	CP136877.1	14993587,14993590	CP136877.1_14993587_14993590
0	GGGAGCAAGCAGGCTAGATG	right	60.535	94	20	14993610	CP136877.1	14993587,14993590	CP136877.1_14993587_14993590
0	TGGGTTTTTGAGACATATCAGATCA	left	58.28	1	25	16179325	CP136878.1	16179351,16179354,16179361,16179390,16179398	CP136878.1_16179351_16179398
0	AGTGGGCCAAAGAACACAGA	right	59.449	131	20	16179455	CP136878.1	16179351,16179354,16179361,16179390,16179398	CP136878.1_16179351_16179398
0	CTCAGCGAACTTCACCGGAT	left	60.109	3	20	8244751	CP136878.1	8244773,8244778,8244800,8244811,8244814,8244822	CP136878.1_8244773_8244822
0	AGTCGTGAGGTGACATGTGC	right	60.32	124	20	8244872	CP136878.1	8244773,8244778,8244800,8244811,8244814,8244822	CP136878.1_8244773_8244822
0	CCAGTTTTTGAAATGTGATGTGACG	left	59.826	4	25	23229892	CP136878.1	23229918,23229957,23229962	CP136878.1_23229918_23229962
0	GTGGGTTTCCATCCACCTGT	right	59.888	111	20	23229999	CP136878.1	23229918,23229957,23229962	CP136878.1_23229918_23229962
0	AGAGATGGATGATGGGAAGCA	left	58.584	0	21	3940431	CP136878.1	3940457,3940459,3940483,3940497,3940505	CP136878.1_3940457_3940505
0	ACACAATGCACCACTACCCA	right	59.524	136	20	3940567	CP136878.1	3940457,3940459,3940483,3940497,3940505	CP136878.1_3940457_3940505
0	AATTCTCATTGTGAGCATGTTGC	left	58.508	25	23	12218567	CP136878.1	12218606,12218610,12218616	CP136878.1_12218606_12218616
0	AGCCATGTTAGCTGCTCTGT	right	59.383	115	20	12218657	CP136878.1	12218606,12218610,12218616	CP136878.1_12218606_12218616
0	AGAGGACCTTCAGCATCTGT	left	58.05	13	20	19777954	CP136878.1	19777974,19777985,19778015	CP136878.1_19777974_19778015
0	GCGTCAGATTTAGGGGGCTT	right	60.107	139	20	19778080	CP136878.1	19777974,19777985,19778015	CP136878.1_19777974_19778015
0	TTCTTTGAGCGTCCACATGAG	left	58.583	14	21	27883116	CP136878.1	27883137,27883142,27883171,27883174,27883176	CP136878.1_27883137_27883176
0	TTTCTGCTGTGAAGTTGGACA	right	58.002	101	21	27883203	CP136878.1	27883137,27883142,27883171,27883174,27883176	CP136878.1_27883137_27883176
0	ACAACCCAATGAGTCCATCTGA	left	59.356	11	22	25493702	CP136878.1	25493730,25493756,25493765	CP136878.1_25493730_25493765
0	CAACAGTCCACACCTCGACA	right	59.896	158	20	25493849	CP136878.1	25493730,25493756,25493765	CP136878.1_25493730_25493765
0	ACACATGAAGAAGTGTGATTTGC	left	58.137	43	23	6018601	CP136878.1	6018624,6018629,6018632	CP136878.1_6018624_6018632
0	TAATGGTGCAGCCTGACGAC	right	60.391	177	20	6018735	CP136878.1	6018624,6018629,6018632	CP136878.1_6018624_6018632
0	TTGTCGCGTTGCCAGACATA	left	60.32	8	20	14220873	CP136878.1	14220914,14220931,14220939	CP136878.1_14220914_14220939
0	AGACGCAGAGTGAACAACAGT	right	59.863	96	21	14220961	CP136878.1	14220914,14220931,14220939	CP136878.1_14220914_14220939
0	ACTCAGCTGTTCAGCCTCTC	left	59.392	13	20	2052738	CP136878.1	2052761,2052770,2052799	CP136878.1_2052761_2052799
0	GGGGTTCAGGTTAGCCACAA	right	59.888	94	20	2052819	CP136878.1	2052761,2052770,2052799	CP136878.1_2052761_2052799
0	ACAATACAGGCTTACACACATCCT	left	60.019	12	24	10078048	CP136878.1	10078074,10078082,10078087,10078110	CP136878.1_10078074_10078110
0	GGGGAGAGTTTGTGGATGGG	right	60.034	130	20	10078166	CP136878.1	10078074,10078082,10078087,10078110	CP136878.1_10078074_10078110
0	CATCCACACCAACCCTCGTT	left	60.251	1	20	17932222	CP136878.1	17932251,17932268,17932295	CP136878.1_17932251_17932295
0	TGAAAATGTCAAATTCAACCAAGCA	right	58.889	143	25	17932364	CP136878.1	17932251,17932268,17932295	CP136878.1_17932251_17932295
0	AGATGACATCAAAAGCACACAGC	left	60.058	6	23	21461378	CP136878.1	21461401,21461415,21461432,21461446	CP136878.1_21461401_21461446
0	GCCTACAATCCCTTCCCACA	right	59.376	138	20	21461510	CP136878.1	21461401,21461415,21461432,21461446	CP136878.1_21461401_21461446
0	TGCTGAACCTTGATTTCTTGCA	left	59.042	1	22	29439445	CP136878.1	29439503,29439518	CP136878.1_29439503_29439518
0	GCAAAACTGGTGCCATGTGT	right	59.895	135	20	29439579	CP136878.1	29439503,29439518	CP136878.1_29439503_29439518
0	CATTGTGCCGAAAGTCACCC	left	59.759	40	20	26632521	CP136878.1	26632545,26632555	CP136878.1_26632545_26632555
0	GGCACTTTGACCTGGAGTGA	right	59.891	105	20	26632586	CP136878.1	26632545,26632555	CP136878.1_26632545_26632555
0	TTTCTGTCTGACTTGGCGGC	left	60.885	44	20	5023580	CP136878.1	5023603,5023605,5023610	CP136878.1_5023603_5023610
0	TATCCTCGGGTGTCAGCAGA	right	60.034	185	20	5023721	CP136878.1	5023603,5023605,5023610	CP136878.1_5023603_5023610
0	TTCTCTTTCACGCCTCACCC	left	59.965	19	20	11186679	CP136878.1	11186700,11186731,11186734	CP136878.1_11186700_11186734
0	TCCACCATGTTGAACTGCCA	right	59.815	155	20	11186815	CP136878.1	11186700,11186731,11186734	CP136878.1_11186700_11186734
0	TCCCCTGAATTTGCTGTCCA	left	59.223	16	20	13145102	CP136878.1	13145131,13145140,13145145,13145160	CP136878.1_13145131_13145160
0	AAGCACACACACAAGTCCCT	right	59.744	105	20	13145191	CP136878.1	13145131,13145140,13145145,13145160	CP136878.1_13145131_13145160
0	CGCCAAAGGAAAACAGACGT	left	59.339	12	20	7060118	CP136878.1	7060145,7060180	CP136878.1_7060145_7060180
0	GGAACACTCACCTGCTGACT	right	59.605	113	20	7060219	CP136878.1	7060145,7060180	CP136878.1_7060145_7060180
0	GCAGGTAGCCATGGTCAAAC	left	59.189	29	20	24364199	CP136878.1	24364232,24364244	CP136878.1_24364232_24364244
0	TGGTGTGGAATGGGATGAAGG	right	59.994	141	21	24364311	CP136878.1	24364232,24364244	CP136878.1_24364232_24364244
0	TGTCATGCATCTCCAGCAGT	left	59.383	0	20	3024020	CP136878.1	3024051,3024076,3024094	CP136878.1_3024051_3024094
0	TCCCCCTCTACAACTGGACC	right	60.253	132	20	3024152	CP136878.1	3024051,3024076,3024094	CP136878.1_3024051_3024094
0	CCCACATTTCCAAAACATTTGTCA	left	58.878	1	24	12779163	CP136879.1	12779198,12779210,12779236	CP136879.1_12779198_12779236
0	TGAACCACCACACTCTGAGC	right	59.893	123	20	12779285	CP136879.1	12779198,12779210,12779236	CP136879.1_12779198_12779236
0	ATAGTTGATGTGGAGCAGCTG	left	58.085	14	21	19127008	CP136879.1	19127029,19127040,19127042,19127051,19127064,19127068	CP136879.1_19127029_19127068
0	ACGGGGTGATTTTGTGCTCT	right	59.89	159	20	19127153	CP136879.1	19127029,19127040,19127042,19127051,19127064,19127068	CP136879.1_19127029_19127068
0	CCCTGAGGTAACCTGAGCAG	left	59.461	8	20	6288131	CP136879.1	6288157,6288191,6288197	CP136879.1_6288157_6288197
0	CCACCCCGTATAAAAGGCCA	right	59.744	122	20	6288245	CP136879.1	6288157,6288191,6288197	CP136879.1_6288157_6288197
0	GGCAAGGACTGAGCCTTTGT	left	60.538	20	20	22444054	CP136879.1	22444075,22444088,22444096,22444108	CP136879.1_22444075_22444108
0	TGAGGATGTCATAAAACGTAGCTGA	right	60.106	124	25	22444158	CP136879.1	22444075,22444088,22444096,22444108	CP136879.1_22444075_22444108
2	TGCTGTGAACTGTAGCTGCT	left	59.606	0	20	15998739	CP136879.1	15998781,15998788,15998799,15998808,15998813	CP136879.1_15998781_15998813
2	GGGCCTGAAAACCTCCTCTT	right	59.594	144	20	15998883	CP136879.1	15998781,15998788,15998799,15998808,15998813	CP136879.1_15998781_15998813
1	TGAGCCTTTTATATCTACAGTGGGA	left	59.097	24	25	9350411	CP136879.1	9350436,9350445,9350451,9350461	CP136879.1_9350436_9350461
1	CTCACGTCACCCTCCCTTTG	right	60.321	145	20	9350532	CP136879.1	9350436,9350445,9350451,9350461	CP136879.1_9350436_9350461
0	GCAAGGTCTGGACACTCTCT	left	59.027	6	20	3146336	CP136879.1	3146363,3146395,3146404	CP136879.1_3146363_3146404
0	TGTATCTGGGACAAACACACACA	right	60.118	155	23	3146485	CP136879.1	3146363,3146395,3146404	CP136879.1_3146363_3146404
0	TGGATTAGTACTGAAAACAGGCTT	left	58.124	13	24	11148331	CP136879.1	11148364,11148373,11148382,11148392	CP136879.1_11148364_11148392
0	TCAGGTCTGTCACTGAGTCCT	right	59.854	126	21	11148444	CP136879.1	11148364,11148373,11148382,11148392	CP136879.1_11148364_11148392
0	TTGCATGGTCACTCCTGCAT	left	59.961	24	20	20766528	CP136879.1	20766557,20766566,20766578	CP136879.1_20766557_20766578
0	TGAGCTCATAAACTGAAGATGAACC	right	59.123	144	25	20766648	CP136879.1	20766557,20766566,20766578	CP136879.1_20766557_20766578
0	CTTGCATAAAGGTATCAAAACTGCT	left	58.376	16	25	7773908	CP136879.1	7773943,7773951,7773959,7773966	CP136879.1_7773943_7773966
0	ACAATGCAGTGATTGGACCAC	right	59.111	106	21	7773998	CP136879.1	7773943,7773951,7773959,7773966	CP136879.1_7773943_7773966
0	GGTCACACAGAGACAGAGCC	left	60.038	11	20	17574995	CP136879.1	17575020,17575033,17575056,17575058	CP136879.1_17575020_17575058
0	TGAACTGTTTGGAGACGGGG	right	59.892	147	20	17575131	CP136879.1	17575020,17575033,17575056,17575058	CP136879.1_17575020_17575058
0	CCAGCGTGGGCATTCTCATA	left	60.179	9	20	14460402	CP136879.1	14460428,14460430,14460433,14460467	CP136879.1_14460428_14460467
0	GGTCACGTGTTACACCAGCT	right	60.25	114	20	14460507	CP136879.1	14460428,14460430,14460433,14460467	CP136879.1_14460428_14460467
0	CTTACGCTGTGTGTCCGTGT	left	60.597	3	20	4818084	CP136879.1	4818108,4818114,4818155	CP136879.1_4818108_4818155
0	AGTCTGAGGTCCGTTTAAAACCT	right	59.61	152	23	4818233	CP136879.1	4818108,4818114,4818155	CP136879.1_4818108_4818155
0	TCAGCCCTCTAGTGTTTGCA	left	58.944	7	20	23986824	CP136879.1	23986853,23986875,23986891	CP136879.1_23986853_23986891
0	ACCTCCACTACAGTCGGATACA	right	60.026	124	22	23986941	CP136879.1	23986853,23986875,23986891	CP136879.1_23986853_23986891
0	TCACTCTCTTCTCCTCTGCCA	left	59.924	19	21	1549710	CP136879.1	1549733,1549744,1549765	CP136879.1_1549733_1549765
0	GCTGTCCTGACATGAGACCA	right	59.39	162	20	1549853	CP136879.1	1549733,1549744,1549765	CP136879.1_1549733_1549765
0	TGCAAAAACCAACCTGTGTCA	left	59.104	10	21	10318716	CP136879.1	10318739,10318742,10318780	CP136879.1_10318739_10318780
0	CACCACAGCAACCAACTTGG	right	59.897	94	20	10318800	CP136879.1	10318739,10318742,10318780	CP136879.1_10318739_10318780
0	TGTCTTGCTTAACTGTAATCCAGC	left	59.305	19	24	19923832	CP136879.1	19923856,19923863,19923887	CP136879.1_19923856_19923887
0	AGTGATCAGCCACAGTCAGC	right	60.037	152	20	19923965	CP136879.1	19923856,19923863,19923887	CP136879.1_19923856_19923887
0	CTGCAAGTATAAAGAACGACAGC	left	58.113	2	23	11960802	CP136879.1	11960825,11960841,11960866,11960874	CP136879.1_11960825_11960874
0	GCAGCCAGAGCCACAGAG	right	60.436	93	18	11960893	CP136879.1	11960825,11960841,11960866,11960874	CP136879.1_11960825_11960874
0	TCTTTGCGTGATTGAGAGGGT	left	59.652	4	21	8556182	CP136879.1	8556212,8556241,8556252	CP136879.1_8556212_8556252
0	AGGACAGTGGTGGTTTCTTGT	right	59.436	108	21	8556286	CP136879.1	8556212,8556241,8556252	CP136879.1_8556212_8556252
0	ATGACAAAACATTTCACTTGGTGT	left	58.024	2	24	13969978	CP136880.1	13970005,13970011,13970020,13970028,13970043,13970050	CP136880.1_13970005_13970050
0	TCTCTGGGTAGTGGGTGGTT	right	59.807	136	20	13970112	CP136880.1	13970005,13970011,13970020,13970028,13970043,13970050	CP136880.1_13970005_13970050
0	AGGCCTTCACCTAACTTGGT	left	58.554	15	20	22152778	CP136880.1	22152803,22152814,22152821,22152825,22152833,22152837	CP136880.1_22152803_22152837
0	CATGACGGTTTCCTGCTTGC	right	60.11	134	20	22152897	CP136880.1	22152803,22152814,22152821,22152825,22152833,22152837	CP136880.1_22152803_22152837
0	GTGTCCTGAGTAGAGGGGCT	left	60.325	43	20	7123288	CP136880.1	7123310,7123319	CP136880.1_7123310_7123319
0	ATGTCATCTACGCTCTGGCC	right	59.609	153	20	7123398	CP136880.1	7123310,7123319	CP136880.1_7123310_7123319
0	TGGTTCGCCTTCTCTAACCG	left	59.754	7	20	17815277	CP136880.1	17815297,17815308,17815318,17815344	CP136880.1_17815297_17815344
0	TGTCTGCTGGATCTCTGGGA	right	59.958	123	20	17815393	CP136880.1	17815297,17815308,17815318,17815344	CP136880.1_17815297_17815344
0	TCTGAACAGATACTTGAGGCAGT	left	59.165	7	23	26314812	CP136880.1	26314836,26314847,26314857,26314870,26314879	CP136880.1_26314836_26314879
0	TGGACATGAACCAATCGCCC	right	60.68	98	20	26314903	CP136880.1	26314836,26314847,26314857,26314870,26314879	CP136880.1_26314836_26314879
0	CCCTTCGCTAACACTAATTCTAGAG	left	58.79	0	25	3631444	CP136880.1	3631471,3631495,3631501,3631518	CP136880.1_3631471_3631518
0	ATCAAAGTGGGAGACGAGCC	right	59.749	130	20	3631574	CP136880.1	3631471,3631495,3631501,3631518	CP136880.1_3631471_3631518
0	TCGTGCCTGACTTCATTCGT	left	59.683	1	20	10587507	CP136880.1	10587545,10587572,10587580	CP136880.1_10587545_10587580
0	GGCAACGGGCTAATCAATGC	right	60.249	135	20	10587641	CP136880.1	10587545,10587572,10587580	CP136880.1_10587545_10587580
0	ATTGGCTCTGCTCTCCGTTC	left	60.108	10	20	19890443	CP136880.1	19890472,19890503,19890507	CP136880.1_19890472_19890507
0	CCGGGGGAGTGTTACTGTTC	right	60.037	94	20	19890527	CP136880.1	19890472,19890503,19890507	CP136880.1_19890472_19890507
0	ATTAGTGCAAAATGAGTTTCATGCT	left	58.306	4	25	24202498	CP136880.1	24202523,24202541,24202568	CP136880.1_24202523_24202568
0	GCCACTGAGCAGCTTCCATA	right	60.108	140	20	24202634	CP136880.1	24202523,24202541,24202568	CP136880.1_24202523_24202568
0	GTCATGTCCACCTCAGGCTG	left	60.392	0	20	15847122	CP136880.1	15847172,15847178,15847189,15847196	CP136880.1_15847172_15847196
0	GCTGAGGCTGATGGGAAAGT	right	60.035	145	20	15847267	CP136880.1	15847172,15847178,15847189,15847196	CP136880.1_15847172_15847196
0	GATGCCATTTTGGACACCGT	left	59.112	3	20	1827065	CP136880.1	1827118,1827127,1827133,1827136	CP136880.1_1827118_1827136
0	CGCCATCTCCACATCGATCT	right	59.683	152	20	1827214	CP136880.1	1827118,1827127,1827133,1827136	CP136880.1_1827118_1827136
0	ATTGGCAGTGTGGCTGGTTT	left	60.76	7	20	5407213	CP136880.1	5407234,5407244,5407264,5407280	CP136880.1_5407234_5407280
0	GTGCACTTGTCAAAGCTGGA	right	58.976	116	20	5407322	CP136880.1	5407234,5407244,5407264,5407280	CP136880.1_5407234_5407280
0	AACAGACAGACAGGCACTCG	left	59.967	5	20	8843576	CP136880.1	8843617,8843627,8843633,8843645	CP136880.1_8843617_8843645
0	CGACCCCTGACCAGTTCATC	right	60.108	97	20	8843668	CP136880.1	8843617,8843627,8843633,8843645	CP136880.1_8843617_8843645
0	TCTGATGAGTGCCATTTCACTTG	left	59.245	8	23	12352378	CP136880.1	12352401,12352434,12352437,12352444	CP136880.1_12352401_12352444
0	TCCACTAGAGGGTAGCACCG	right	60.395	109	20	12352479	CP136880.1	12352401,12352434,12352437,12352444	CP136880.1_12352401_12352444
0	TGCTTCAATGCAATATGCTTCTGA	left	59.6	7	24	28041075	CP136880.1	28041102,28041135,28041142	CP136880.1_28041102_28041142
0	AGCAGCTAGATACAGAGGTGGA	right	60.092	123	22	28041191	CP136880.1	28041102,28041135,28041142	CP136880.1_28041102_28041142
0	AGGAGATGGTGGAGATGAAACC	left	59.493	13	22	20997387	CP136880.1	20997419,20997425,20997448	CP136880.1_20997419_20997448
0	GCCGTTATGGGTAACATGTTAAGT	right	59.363	150	24	20997524	CP136880.1	20997419,20997425,20997448	CP136880.1_20997419_20997448
0	TCCACTTGAAATGGCTTCAACT	left	58.435	2	22	25169823	CP136880.1	25169847,25169872,25169874,25169887,25169895	CP136880.1_25169847_25169895
0	AGGGAGCCAAAAGTAGGAGAT	right	58.148	127	21	25169948	CP136880.1	25169847,25169872,25169874,25169887,25169895	CP136880.1_25169847_25169895
0	GGAGGGCTGGATGCAGAAAA	left	60.324	15	20	18963900	CP136880.1	18963927,18963947,18963955,18963959	CP136880.1_18963927_18963959
0	TTGCTCTGTGTGCACATTGT	right	58.608	142	20	18964027	CP136880.1	18963927,18963947,18963955,18963959	CP136880.1_18963927_18963959
0	TCAGAAGAAGCAAGTAACCCTTTT	left	58.554	6	24	23124810	CP136880.1	23124843,23124857,23124878	CP136880.1_23124843_23124878
0	CGATCCACAGAATCCCTGCA	right	59.821	155	20	23124959	CP136880.1	23124843,23124857,23124878	CP136880.1_23124843_23124878
0	GTAGCCACACCTGCAACATTG	left	60.068	0	21	16823636	CP136880.1	16823661,16823673,16823678,16823710	CP136880.1_16823661_16823710
0	TCAGGCTGTCTTCATTAGGGT	right	58.449	116	21	16823752	CP136880.1	16823661,16823673,16823678,16823710	CP136880.1_16823661_16823710
0	CTGCACAGGGAGGAGATGTT	left	59.383	3	20	14937494	CP136880.1	14937517,14937540,14937565	CP136880.1_14937517_14937565
0	CACCTGGCACATCTTCCAGT	right	59.963	145	20	14937636	CP136880.1	14937517,14937540,14937565	CP136880.1_14937517_14937565
0	GCAGAACAACGTCTGAGGGT	left	60.25	18	20	955430	CP136880.1	955453,955461,955476,955486	CP136880.1_955453_955486
0	TGATTCTCCGCTGCTGTTGT	right	59.965	134	20	955546	CP136880.1	955453,955461,955476,955486	CP136880.1_955453_955486
0	GCAGTATTCTCAGCTCCAGGA	left	59.241	6	21	14285378	CP136881.1	14285402,14285411,14285417,14285425,14285446	CP136881.1_14285402_14285446
0	ATGGCCTCCAAATTCCCCAG	right	60.032	94	20	14285466	CP136881.1	14285402,14285411,14285417,14285425,14285446	CP136881.1_14285402_14285446
0	GCTAGGCTCATTGACTATGTCCT	left	59.677	30	23	21626951	CP136881.1	21626976,21626986,21626989,21626995	CP136881.1_21626976_21626995
0	CCTCGACACGCTAACGGTTA	right	59.831	94	20	21627015	CP136881.1	21626976,21626986,21626989,21626995	CP136881.1_21626976_21626995
0	GCCTTCCCTACAGCAGACAA	left	59.675	10	20	6436765	CP136881.1	6436788,6436803,6436807,6436824,6436829	CP136881.1_6436788_6436829
0	TGCACATACACATACACCATCTG	right	58.809	142	23	6436897	CP136881.1	6436788,6436803,6436807,6436824,6436829	CP136881.1_6436788_6436829
0	ACACTCCATTTTGGCCTCCA	left	59.518	9	20	9975628	CP136881.1	9975649,9975659,9975687,9975693	CP136881.1_9975649_9975693
0	TGTTTGAACAGGAAGGGGGC	right	60.469	95	20	9975714	CP136881.1	9975649,9975659,9975687,9975693	CP136881.1_9975649_9975693
0	CACTGTTGCTTTCTCTGATGGC	left	60.095	3	22	17754494	CP136881.1	17754527,17754539,17754553,17754557,17754565	CP136881.1_17754527_17754565
0	AGGTGAGGTACTTCCCTGCT	right	59.883	101	20	17754592	CP136881.1	17754527,17754539,17754553,17754557,17754565	CP136881.1_17754527_17754565
0	TGTGCACATAACTGAGAGGCA	left	59.653	12	21	3108465	CP136881.1	3108505,3108507,3108510,3108527	CP136881.1_3108505_3108527
0	ATCAACACCTTGGCAGCACT	right	60.179	146	20	3108599	CP136881.1	3108505,3108507,3108510,3108527	CP136881.1_3108505_3108527
0	AGGTGGAGAATTAAGATGGAAACCT	left	59.746	24	25	25240727	CP136881.1	25240767,25240777	CP136881.1_25240767_25240777
0	TCTCCAAGAAACACAGGGCG	right	60.25	168	20	25240871	CP136881.1	25240767,25240777	CP136881.1_25240767_25240777
0	TGAAGGAAAGATAAGACGCTTGT	left	58.105	17	23	12241372	CP136881.1	12241401,12241415,12241421,12241424,12241429	CP136881.1_12241401_12241429
0	GCTCTCCCCAAAAATGGCTC	right	59.18	97	20	12241452	CP136881.1	12241401,12241415,12241421,12241424,12241429	CP136881.1_12241401_12241429
0	TGGTTTCTTGTAGTTCTGTGGGT	left	59.799	26	23	4791702	CP136881.1	4791734,4791736,4791747,4791750	CP136881.1_4791734_4791750
0	GCTGTTTGGTGAATGTTTGATCC	right	59.01	141	23	4791817	CP136881.1	4791734,4791736,4791747,4791750	CP136881.1_4791734_4791750
3	AGGAGCAATTGATTGACTCAAGA	left	58.085	25	23	19702506	CP136881.1	19702534,19702541,19702555	CP136881.1_19702534_19702555
3	TCCGATCAGCCTGAGATCCT	right	59.813	130	20	19702611	CP136881.1	19702534,19702541,19702555	CP136881.1_19702534_19702555
0	CTGAGCTCACTGGCCGTAG	left	59.859	0	19	8187850	CP136881.1	8187882,8187919,8187924	CP136881.1_8187882_8187924
0	GGTATGATCACCCACCACCA	right	59.084	143	20	8187993	CP136881.1	8187882,8187919,8187924	CP136881.1_8187882_8187924
0	AGCAGCATCCCGTATTTGATCT	left	59.895	6	22	16039565	CP136881.1	16039587,16039601,16039633	CP136881.1_16039587_16039633
0	AGACGCATGATTCTGAAGCAG	right	58.722	95	21	16039654	CP136881.1	16039587,16039601,16039633	CP136881.1_16039587_16039633
0	CAAAGTTGGGAGTCCTGCCT	left	59.889	11	20	23423561	CP136881.1	23423585,23423607,23423615,23423624	CP136881.1_23423585_23423624
0	CGCTGCTGAGCCTTCGTATA	right	59.969	125	20	23423675	CP136881.1	23423585,23423607,23423615,23423624	CP136881.1_23423585_23423624
0	GCAACAGTTGTGAGGTAACATATGT	left	59.819	0	25	27155645	CP136881.1	27155682,27155701,27155706,27155710,27155719	CP136881.1_27155682_27155719
0	TTCAAAGCGCTAATGCTCGC	right	59.903	96	20	27155741	CP136881.1	27155682,27155701,27155706,27155710,27155719	CP136881.1_27155682_27155719
0	AAAGGCTGAGCAGTGGTTGT	left	60.107	15	20	1628212	CP136881.1	1628261,1628264,1628271	CP136881.1_1628261_1628271
0	TACGGCGCTGTGTTTAAGGT	right	59.966	101	20	1628298	CP136881.1	1628261,1628264,1628271	CP136881.1_1628261_1628271
0	AGACAGAATCAAAATGCATTCACC	left	58.283	36	24	11165961	CP136881.1	11165985,11165988,11165999	CP136881.1_11165985_11165999
0	AGCCAGGCTGAACTCCTAAA	right	58.638	148	20	11166073	CP136881.1	11165985,11165988,11165999	CP136881.1_11165985_11165999
0	CCATGAACCTATGAAACCTGCA	left	58.645	0	22	18722566	CP136881.1	18722596,18722602,18722619,18722640	CP136881.1_18722596_18722640
0	GATCCTGGTTCGAATCCCCC	right	59.891	113	20	18722679	CP136881.1	18722596,18722602,18722619,18722640	CP136881.1_18722596_18722640
0	TGCCTGGTGTTGGTGAGTAC	left	59.892	24	20	13203833	CP136881.1	13203863,13203865,13203883	CP136881.1_13203863_13203883
0	TGACGTTATGTATCGACAAAGACT	right	58.054	106	24	13203915	CP136881.1	13203863,13203865,13203883	CP136881.1_13203863_13203883
0	CCTGGGTCACACTGTTGGTT	left	60.107	6	20	20714361	CP136881.1	20714386,20714401,20714408,20714429	CP136881.1_20714386_20714429
0	TCAACCACATCCGTTTTCTGT	right	58.074	118	21	20714473	CP136881.1	20714386,20714401,20714408,20714429	CP136881.1_20714386_20714429
0	CGTGTGGTGTACAGGAAATGT	left	58.51	3	21	22570017	CP136881.1	22570044,22570062,22570088	CP136881.1_22570044_22570088
0	TGTAAGGTCAGTACATTTGCTCAA	right	58.384	134	24	22570148	CP136881.1	22570044,22570062,22570088	CP136881.1_22570044_22570088
0	AGGTTGTAGATAGAAGCTGTCATGT	left	59.576	29	25	3973967	CP136881.1	3973997,3974007,3974012	CP136881.1_3973997_3974012
0	TCCACTGGGTTCTCATGTGT	right	58.566	169	20	3974107	CP136881.1	3973997,3974007,3974012	CP136881.1_3973997_3974012
0	ACTGAAAGACTTAGCTCCCTGT	left	58.756	2	22	15538692	CP136882.1	15538715,15538752,15538755,15538764	CP136882.1_15538715_15538764
0	AGACAGGTCTGTGTTTTTCCTG	right	58.454	150	22	15538840	CP136882.1	15538715,15538752,15538755,15538764	CP136882.1_15538715_15538764
0	GGGCTCAAGGTATGGAAAGCT	left	60.064	19	21	24109212	CP136882.1	24109238,24109247,24109251,24109254,24109267	CP136882.1_24109238_24109267
0	AAGCAGGTAGACCAAGACCA	right	58.27	94	20	24109287	CP136882.1	24109238,24109247,24109251,24109254,24109267	CP136882.1_24109238_24109267
0	AGTATTGAGGATCTCTAGTTGAGGC	left	59.462	12	25	7037444	CP136882.1	7037469,7037471,7037474,7037492,7037506	CP136882.1_7037469_7037506
0	CCTGTGCCATCAGGTGTCAT	right	60.035	136	20	7037568	CP136882.1	7037469,7037471,7037474,7037492,7037506	CP136882.1_7037469_7037506
0	ACTCCGCTACTCACAGCTGA	left	60.609	0	20	19818129	CP136882.1	19818163,19818182,19818191,19818203	CP136882.1_19818163_19818203
0	GTTACAGTTGCTCTTGCGCC	right	60.11	147	20	19818276	CP136882.1	19818163,19818182,19818191,19818203	CP136882.1_19818163_19818203
0	GGGAACTGTGCTTTCTTTGGC	left	60.27	6	21	11204726	CP136882.1	11204751,11204756,11204762,11204794	CP136882.1_11204751_11204794
0	TGTCTAAGAACACTTGTCTGCTCA	right	59.901	149	24	11204869	CP136882.1	11204751,11204756,11204762,11204794	CP136882.1_11204751_11204794
0	GGCTTCGACAATGGGATTCA	left	58.25	0	20	28111881	CP136882.1	28111910,28111944,28111955	CP136882.1_28111910_28111955
0	AGCTTTCGCTCTCGTTTCCT	right	59.681	99	20	28111980	CP136882.1	28111910,28111944,28111955	CP136882.1_28111910_28111955
0	CCCCTCTCTTCTGTTGAGCG	left	60.108	14	20	3402685	CP136882.1	3402719,3402721,3402734,3402741,3402745	CP136882.1_3402719_3402745
0	TTTACCTCTGTGGGGGTTGC	right	59.888	108	20	3402779	CP136882.1	3402719,3402721,3402734,3402741,3402745	CP136882.1_3402719_3402745
0	ATTGCCACAGGGTTGTCCAA	left	60.106	17	20	9094665	CP136882.1	9094687,9094690,9094697,9094710,9094712,9094715,9094722	CP136882.1_9094687_9094722
0	GAATGAGAGTGAGGGACCGC	right	60.179	128	20	9094776	CP136882.1	9094687,9094690,9094697,9094710,9094712,9094715,9094722	CP136882.1_9094687_9094722
0	AAGACTTCACAGACTTCACTTCC	left	58.301	12	23	21888644	CP136882.1	21888667,21888669,21888682,21888703,21888706	CP136882.1_21888667_21888706
0	CCACAGACGCCACAAATCAA	right	59.049	155	20	21888787	CP136882.1	21888667,21888669,21888682,21888703,21888706	CP136882.1_21888667_21888706
0	TGGAGAGCTCATGTACATCAGC	left	59.898	6	22	13505716	CP136882.1	13505739,13505743,13505763,13505784	CP136882.1_13505739_13505784
0	GTGTGCCACTTTCATGACACA	right	59.325	119	21	13505829	CP136882.1	13505739,13505743,13505763,13505784	CP136882.1_13505739_13505784
0	ACTAGGCTGTGTTGCTTTAGACT	left	59.675	1	23	17895353	CP136882.1	17895394,17895399,17895426	CP136882.1_17895394_17895426
0	TAGAGGAAGGCTCAAGGGGT	right	59.582	124	20	17895476	CP136882.1	17895394,17895399,17895426	CP136882.1_17895394_17895426
0	AGTGAAACACTGGACTCTATGTCA	left	59.411	1	24	26110499	CP136882.1	26110535,26110572	CP136882.1_26110535_26110572
0	CAGCTGGCCCTCTAATGAGT	right	59.164	94	20	26110592	CP136882.1	26110535,26110572	CP136882.1_26110535_26110572
0	AAATGTCATCAAACAAATCTCAGCA	left	58.249	31	25	5204589	CP136882.1	5204614,5204618,5204632	CP136882.1_5204614_5204632
0	GACTCTGTGCCACATCTGGT	right	59.677	125	20	5204683	CP136882.1	5204614,5204618,5204632	CP136882.1_5204614_5204632
0	ACACCACCATGCTTACTGGG	left	59.962	23	20	29973136	CP136882.1	29973171,29973187	CP136882.1_29973171_29973187
0	GCGGTTCCTTTGATGCCAAT	right	59.468	149	20	29973262	CP136882.1	29973171,29973187	CP136882.1_29973171_29973187
0	CCTCAGAGGCCCCGC	left	58.522	0	15	1832165	CP136882.1	1832195,1832236,1832239	CP136882.1_1832195_1832239
0	GTACGACACGCCCTTCATCT	right	59.827	117	20	1832282	CP136882.1	1832195,1832236,1832239	CP136882.1_1832195_1832239
0	TGCAGTGCTATCAACAGCCA	left	59.963	31	20	16767650	CP136882.1	16767676,16767686,16767693	CP136882.1_16767676_16767693
0	ACCTCACTAGCAACAGAAATGC	right	58.923	127	22	16767746	CP136882.1	16767676,16767686,16767693	CP136882.1_16767676_16767693
0	TCCTTTGCTGTCTTTTGATGCA	left	59.042	14	22	14524242	CP136882.1	14524273,14524297,14524302	CP136882.1_14524273_14524302
0	GCCTGTTCAAATCAAATAGGTGGA	right	59.538	116	24	14524344	CP136882.1	14524273,14524297,14524302	CP136882.1_14524273_14524302
0	AACATGTGTGGATGCTTTGATTG	left	58.438	17	23	12458587	CP136882.1	12458610,12458641,12458644	CP136882.1_12458610_12458644
0	GAGGAGTGGATGTGAAGCCA	right	59.385	119	20	12458689	CP136882.1	12458610,12458641,12458644	CP136882.1_12458610_12458644
0	AGTGTGCTGATGGTGAATTGAA	left	58.511	1	22	25113689	CP136882.1	25113738,25113748,25113754,25113762	CP136882.1_25113738_25113762
0	ACTGTGTAAACTTGTGTCAGGTAGA	right	59.872	150	25	25113838	CP136882.1	25113738,25113748,25113754,25113762	CP136882.1_25113738_25113762
0	AGTTTTTCTTCCTTTTACAGCTCGA	left	59.179	4	25	22944349	CP136882.1	22944376,22944382,22944386,22944419	CP136882.1_22944376_22944419
0	TCATTGCTGACATTTCTCTGCC	right	59.249	98	22	22944443	CP136882.1	22944376,22944382,22944386,22944419	CP136882.1_22944376_22944419
0	GGACCCCACAAAACCCTCTT	left	59.812	3	20	10086419	CP136882.1	10086482,10086487,10086490	CP136882.1_10086482_10086490
0	TCAAAGTTGACACCCCTGCA	right	59.743	136	20	10086552	CP136882.1	10086482,10086487,10086490	CP136882.1_10086482_10086490
0	AACGCTAACCATCCGACCTG	left	60.108	6	20	20888789	CP136882.1	20888812,20888845,20888857	CP136882.1_20888812_20888857
0	TTTCACACACACTCCGCTCA	right	59.823	115	20	20888898	CP136882.1	20888812,20888845,20888857	CP136882.1_20888812_20888857
0	TAGGGGAGGCCACATTAGGT	left	59.654	13	20	8081164	CP136882.1	8081188,8081193,8081225	CP136882.1_8081188_8081225
0	TCCCGAACAACAGATGCGTT	right	60.25	98	20	8081249	CP136882.1	8081188,8081193,8081225	CP136882.1_8081188_8081225
0	GGCCAAGCCCCATATGTGG	left	60.834	1	19	14574811	CP136883.1	14574838,14574841,14574849,14574869,14574884	CP136883.1_14574838_14574884
0	CACAGACTGGCCAAACTGGA	right	60.179	128	20	14574938	CP136883.1	14574838,14574841,14574849,14574869,14574884	CP136883.1_14574838_14574884
0	TCCGATCATAGGTAAAACGCACA	left	60.119	1	23	7820570	CP136883.1	7820608,7820624,7820627,7820643	CP136883.1_7820608_7820643
0	AAAAGTGCCGCTGCTGTTAG	right	59.407	105	20	7820674	CP136883.1	7820608,7820624,7820627,7820643	CP136883.1_7820608_7820643
0	GGCAGAACTCATTCGGTCCT	left	59.749	0	20	21696508	CP136883.1	21696560,21696570,21696582	CP136883.1_21696560_21696582
0	CCTCCTTATTTCAGCTTTTATTGGC	right	58.724	101	25	21696609	CP136883.1	21696560,21696570,21696582	CP136883.1_21696560_21696582
0	TCGAGTCAATCAAAGCAAATTCTTT	left	58.262	25	25	3977479	CP136883.1	3977509,3977515,3977521,3977528	CP136883.1_3977509_3977528
0	CACTTCCACTTCCCCCAACA	right	59.815	137	20	3977591	CP136883.1	3977509,3977515,3977521,3977528	CP136883.1_3977509_3977528
0	TCTTAAAGCCACCAGACTTTAGAC	left	58.452	18	24	25449496	CP136883.1	25449520,25449548,25449552	CP136883.1_25449520_25449552
0	CGTTTGACCTCACAGAACATACT	right	58.693	167	23	25449645	CP136883.1	25449520,25449548,25449552	CP136883.1_25449520_25449552
0	AAAGTGACTGGAATTCTTGCAAAA	left	58.024	17	24	18166018	CP136883.1	18166043,18166075	CP136883.1_18166043_18166075
0	ACCATCCACCTTTCAAGCCT	right	59.22	160	20	18166161	CP136883.1	18166043,18166075	CP136883.1_18166043_18166075
0	GGTTGTGTCAGTGCTCATTTGT	left	59.641	20	22	11361155	CP136883.1	11361179,11361181,11361194,11361209	CP136883.1_11361179_11361209
0	TCAATGCTTAGTTACTTACTTCCGC	right	59.42	99	25	11361234	CP136883.1	11361179,11361181,11361194,11361209	CP136883.1_11361179_11361209
0	AGCTCTGAAGAGACGATAAGCT	left	58.713	4	22	2025150	CP136883.1	2025177,2025194,2025200,2025210,2025220	CP136883.1_2025177_2025220
0	TGGAAGCAGGTGATGTTTGACT	right	60.159	118	22	2025264	CP136883.1	2025177,2025194,2025200,2025210,2025220	CP136883.1_2025177_2025220
0	AAACTCAAAATCTGCCATGTTGG	left	58.366	16	23	5888389	CP136883.1	5888412,5888428,5888434,5888447	CP136883.1_5888412_5888447
0	GAGCACCCAGGCTTCATTCA	right	60.323	134	20	5888507	CP136883.1	5888412,5888428,5888434,5888447	CP136883.1_5888412_5888447
0	TGACTAGGACGCACACTTTCA	left	59.316	15	21	27250012	CP136883.1	27250035,27250037,27250071	CP136883.1_27250035_27250071
0	CAGCCCAACACTCCACTCTT	right	59.891	154	20	27250151	CP136883.1	27250035,27250037,27250071	CP136883.1_27250035_27250071
0	TGCTTTCGCTGTTGAAGTGTG	left	59.936	0	21	23575836	CP136883.1	23575868,23575889,23575910	CP136883.1_23575868_23575910
0	GAGGTTCTGCTTTCTCACAGGA	right	59.962	140	22	23575976	CP136883.1	23575868,23575889,23575910	CP136883.1_23575868_23575910
0	GGGGTTGGACTATTTCTCGAGT	left	59.499	1	22	19878922	CP136883.1	19878961,19878964,19878995	CP136883.1_19878961_19878995
0	CCCAAGGTGACAAAATCTGCC	right	59.727	114	21	19879035	CP136883.1	19878961,19878964,19878995	CP136883.1_19878961_19878995
0	ACAGGGAGGAAACACAGATCA	left	58.661	17	21	9607850	CP136883.1	9607879,9607902,9607907	CP136883.1_9607879_9607907
0	GAGGGAAAGCAAAGCAAGGC	right	60.038	150	20	9607983	CP136883.1	9607879,9607902,9607907	CP136883.1_9607879_9607907
0	CTCCATCTAGACGCTGACCG	left	59.691	15	20	16288075	CP136883.1	16288098,16288114,16288134	CP136883.1_16288098_16288134
0	TGTCTAAGTCCTGTAGGCACA	right	58.116	164	21	16288224	CP136883.1	16288098,16288114,16288134	CP136883.1_16288098_16288134
0	GGGTCAAACCACCAATGTGC	left	59.967	2	20	12996700	CP136883.1	12996744,12996761,12996768,12996772	CP136883.1_12996744_12996772
0	CAGGTAGAAGCGTGGTGTGT	right	59.966	101	20	12996799	CP136883.1	12996744,12996761,12996768,12996772	CP136883.1_12996744_12996772
0	CCTGTGAAATGTCTGAACAACTACT	left	59.24	0	25	1032345	CP136883.1	1032370,1032379,1032416,1032419	CP136883.1_1032370_1032419
0	CGTCCTCTGGGAAGCATGAA	right	59.75	98	20	1032443	CP136883.1	1032370,1032379,1032416,1032419	CP136883.1_1032370_1032419
0	CACTTCTTGATCCAACAAACAGTT	left	58.105	0	24	2970300	CP136883.1	2970325,2970372,2970374	CP136883.1_2970325_2970374
0	AGCAGAGGTTTACACCCATCTG	right	60.027	149	22	2970449	CP136883.1	2970325,2970372,2970374	CP136883.1_2970325_2970374
0	GCACAGCTGCATCGATCTCA	left	60.809	3	20	20796233	CP136883.1	20796256,20796262,20796279,20796304	CP136883.1_20796256_20796304
0	CAATCAGAACTTGCTTGGCAGA	right	59.445	133	22	20796363	CP136883.1	20796256,20796262,20796279,20796304	CP136883.1_20796256_20796304
0	AGTTGTCTGTGGCCCATTCA	left	59.522	31	20	4942387	CP136883.1	4942411,4942430	CP136883.1_4942411_4942430
0	CCATCAGAGCAGCACCATGT	right	60.394	150	20	4942506	CP136883.1	4942411,4942430	CP136883.1_4942411_4942430
0	AGGATTTAGTGGCACCGAGC	left	60.108	8	20	19006125	CP136883.1	19006150,19006152,19006165,19006185,19006191	CP136883.1_19006150_19006191
0	ACTCTCGCTCTAGATATGGCCT	right	59.959	129	22	19006246	CP136883.1	19006150,19006152,19006165,19006185,19006191	CP136883.1_19006150_19006191
0	TTTAAACTATGCACAGAAGGACCT	left	58.124	11	24	6901642	CP136883.1	6901666,6901668,6901705	CP136883.1_6901666_6901705
0	ACTGGTCAAAATCCTCGCCA	right	59.6	126	20	6901757	CP136883.1	6901666,6901668,6901705	CP136883.1_6901666_6901705
0	AGAATGACCTGCCTATGCCA	left	58.784	16	20	15974153	CP136884.1	15974173,15974201,15974209,15974211	CP136884.1_15974173_15974211
0	TCCTGTTTCCAGCTGTGTGG	right	60.179	135	20	15974272	CP136884.1	15974173,15974201,15974209,15974211	CP136884.1_15974173_15974211
0	TGCAAGAGGTAATAATAGTGGCG	left	58.623	5	23	24312194	CP136884.1	24312217,24312221,24312228,24312263	CP136884.1_24312217_24312263
0	TGGCAACATATTTTACTGCTGCT	right	59.237	147	23	24312336	CP136884.1	24312217,24312221,24312228,24312263	CP136884.1_24312217_24312263
0	TGGGATCTGGTAGCAGCAAC	left	59.747	43	20	7622670	CP136884.1	7622690,7622692,7622701	CP136884.1_7622690_7622701
0	TGGGGTGGATGTTTGGGATG	right	59.959	181	20	7622808	CP136884.1	7622690,7622692,7622701	CP136884.1_7622690_7622701
0	CCTCCACAGACAGCTTGGTT	left	59.891	35	20	20120278	CP136884.1	20120306,20120312,20120317	CP136884.1_20120306_20120317
0	TGGAAAAATCATGGGGTTGCA	right	58.667	96	21	20120339	CP136884.1	20120306,20120312,20120317	CP136884.1_20120306_20120317
0	CGCTCTCTGAAAGCCACGTA	left	60.109	3	20	28865679	CP136884.1	28865701,28865741,28865750	CP136884.1_28865701_28865750
0	GCCATCAGACAGAAATTTTAGCTCA	right	59.876	145	25	28865821	CP136884.1	28865701,28865741,28865750	CP136884.1_28865701_28865750
0	TGTGTCCGGAAGAGCTGAAC	left	59.966	21	20	11827061	CP136884.1	11827097,11827114	CP136884.1_11827097_11827114
0	TGACCCAGCACATTATGGCA	right	59.669	104	20	11827144	CP136884.1	11827097,11827114	CP136884.1_11827097_11827114
0	AGTGTAGCTGGCACGAAGAC	left	60.038	25	20	3994874	CP136884.1	3994915,3994923	CP136884.1_3994915_3994923
0	ACGTTTATCACTGTTCAGCCAT	right	58.325	104	22	3994953	CP136884.1	3994915,3994923	CP136884.1_3994915_3994923
0	TAGAGAAGGGCAGGAGACGA	left	59.376	12	20	26633852	CP136884.1	26633880,26633890,26633914	CP136884.1_26633880_26633914
0	CCACTGGCTGAAGGGTCAAA	right	60.179	155	20	26633995	CP136884.1	26633880,26633890,26633914	CP136884.1_26633880_26633914
0	ACATATGATGATCTTGAATGAGGCT	left	58.219	13	25	17968051	CP136884.1	17968076,17968078,17968107,17968109,17968112	CP136884.1_17968076_17968112
0	CAGGTGCTCAAACAAGCCAC	right	59.969	156	20	17968194	CP136884.1	17968076,17968078,17968107,17968109,17968112	CP136884.1_17968076_17968112
0	GCCAGGGAATATAAGTGGGTCC	left	60.225	3	22	9597152	CP136884.1	9597182,9597205,9597207,9597223	CP136884.1_9597182_9597223
0	AAAGATGTCCAACACAGTATCAGT	right	58.13	110	24	9597259	CP136884.1	9597182,9597205,9597207,9597223	CP136884.1_9597182_9597223
0	AGCAGCAATCAGTGGAGACA	left	59.311	0	20	22272772	CP136884.1	22272806,22272820,22272836,22272842,22272846	CP136884.1_22272806_22272846
0	TGCTATGGAAACCCTCAAGTGA	right	59.358	114	22	22272886	CP136884.1	22272806,22272820,22272836,22272842,22272846	CP136884.1_22272806_22272846
0	AGCGGGTTTAGCAGGAAGC	left	60.377	4	19	30825363	CP136884.1	30825388,30825405,30825407,30825413,30825421,30825428,30825433	CP136884.1_30825388_30825433
0	TTGTGGTGCGGTCCATCTAC	right	60.037	116	20	30825475	CP136884.1	30825388,30825405,30825407,30825413,30825421,30825428,30825433	CP136884.1_30825388_30825433
0	GAAGTGATAGTGGGCCCCAG	left	59.819	50	20	13836096	CP136884.1	13836118,13836120	CP136884.1_13836118_13836120
0	CCCATTCTACCACAGCCCAA	right	59.669	136	20	13836182	CP136884.1	13836118,13836120	CP136884.1_13836118_13836120
0	TGTCGTCTGTTGTCACGAGG	left	59.97	19	20	2018276	CP136884.1	2018302,2018318,2018331	CP136884.1_2018302_2018331
0	ACACATTCAGCGAGCTCACA	right	59.966	146	20	2018403	CP136884.1	2018302,2018318,2018331	CP136884.1_2018302_2018331
0	GCACCCTGCTTCTTCCAGAT	left	60.035	6	20	5840331	CP136884.1	5840353,5840369,5840391,5840399	CP136884.1_5840353_5840399
0	ATGCTGCGATAGACCAGTGG	right	59.894	96	20	5840421	CP136884.1	5840353,5840369,5840391,5840399	CP136884.1_5840353_5840399
0	TCTTGTGTTGAGACAGTCGACT	left	59.312	11	22	27714593	CP136884.1	27714623,27714628,27714635,27714641,27714653,27714656	CP136884.1_27714623_27714656
0	TCCTGCTCCAATAACACCTAACA	right	59.415	139	23	27714721	CP136884.1	27714623,27714628,27714635,27714641,27714653,27714656	CP136884.1_27714623_27714656
0	GCGCTGGATCCTGTCTGAAT	left	60.179	11	20	23315461	CP136884.1	23315483,23315492,23315496,23315506,23315514,23315516,23315524	CP136884.1_23315483_23315524
0	AGTGCCTGTCCTCGTGTTAT	right	58.733	94	20	23315544	CP136884.1	23315483,23315492,23315496,23315506,23315514,23315516,23315524	CP136884.1_23315483_23315524
0	TGGAAGAGAGAATGTGGACACA	left	59.028	4	22	10757790	CP136884.1	10757813,10757821,10757860	CP136884.1_10757813_10757860
0	ATCCGGCGCTTATCTTCAGG	right	59.966	139	20	10757925	CP136884.1	10757813,10757821,10757860	CP136884.1_10757813_10757860
0	GCATTCATGCGTAAAACTCCACT	left	60.12	23	23	25573334	CP136884.1	25573372,25573377,25573385	CP136884.1_25573372_25573385
0	ACATTAAGCCGGCTGAACCA	right	59.962	115	20	25573426	CP136884.1	25573372,25573377,25573385	CP136884.1_25573372_25573385
0	ACATTACCTTTCCTAGCCCGA	left	58.526	11	21	21166873	CP136884.1	21166904,21166918,21166936	CP136884.1_21166904_21166936
0	ACAGTAGCCCTGAATGGACA	right	58.343	119	20	21166981	CP136884.1	21166904,21166918,21166936	CP136884.1_21166904_21166936
0	TCATCTCCATCATCCAAAAGTGTT	left	58.427	1	24	18954182	CP136884.1	18954207,18954211,18954232,18954241,18954255	CP136884.1_18954207_18954255
0	CAGGCATGCGGTCACAAAAA	right	59.968	123	20	18954304	CP136884.1	18954207,18954211,18954232,18954241,18954255	CP136884.1_18954207_18954255
0	ACAATTGTCCACTGCAGAGAAA	left	58.445	5	22	16969419	CP136884.1	16969443,16969478,16969488	CP136884.1_16969443_16969488
0	AGCCAAAGAAATGAAGCTGTGG	right	59.702	127	22	16969541	CP136884.1	16969443,16969478,16969488	CP136884.1_16969443_16969488
0	TGACACACCAAACTGAACAACA	left	58.85	1	22	12831863	CP136884.1	12831907,12831921,12831936	CP136884.1_12831907_12831936
0	AGCCTTGGAGTTTCCTGTGT	right	59.153	124	20	12831986	CP136884.1	12831907,12831921,12831936	CP136884.1_12831907_12831936
0	AGTGTGTGTGTTACATATTGTTCCT	left	58.704	3	25	14886766	CP136884.1	14886793,14886837	CP136884.1_14886793_14886837
0	AGATCAACAGAAATCAGCAAAAGCT	right	59.757	151	25	14886914	CP136884.1	14886793,14886837	CP136884.1_14886793_14886837
0	TGCTCTACAGTGCAGGGAAA	left	58.944	1	20	15531766	CP136885.1	15531813,15531829,15531833,15531839	CP136885.1_15531813_15531839
0	ACAGCCAAACTTCCAAAGCT	right	58.219	114	20	15531879	CP136885.1	15531813,15531829,15531833,15531839	CP136885.1_15531813_15531839
0	CCGTGGCGCTATCATGACTA	left	59.686	17	20	7992456	CP136885.1	7992481,7992487,7992491,7992513	CP136885.1_7992481_7992513
0	GTTTTCCCCACTCAGCCTGA	right	59.89	98	20	7992537	CP136885.1	7992481,7992487,7992491,7992513	CP136885.1_7992481_7992513
0	TGCTCTATACCTGCTGCAGT	left	58.511	22	20	22945853	CP136885.1	22945887,22945905	CP136885.1_22945887_22945905
0	ATTTCTTGGCCACTTGGGGG	right	60.545	122	20	22945953	CP136885.1	22945887,22945905	CP136885.1_22945887_22945905
0	TGAAGGGGTTTCACTGTGCA	left	59.743	23	20	26686662	CP136885.1	26686695,26686698,26686701,26686705,26686708,26686713	CP136885.1_26686695_26686713
0	AACTGCACCTAGACGCTGAC	right	60.038	168	20	26686807	CP136885.1	26686695,26686698,26686701,26686705,26686708,26686713	CP136885.1_26686695_26686713
0	GGGAGGATGATTTGGCAGGA	left	59.447	16	20	11765813	CP136885.1	11765842,11765845,11765857,11765871	CP136885.1_11765842_11765871
0	TGAAGAAGCTAGCCATTACCTACT	right	59.037	106	24	11765903	CP136885.1	11765842,11765845,11765857,11765871	CP136885.1_11765842_11765871
0	TTGTCTCTTCTACATGATATGCAGG	left	58.481	28	25	3979546	CP136885.1	3979571,3979592	CP136885.1_3979571_3979592
0	TTCCACGCCATAGCTTTTCAA	right	58.49	129	21	3979647	CP136885.1	3979571,3979592	CP136885.1_3979571_3979592
0	ACACACTGGTCCTTTAAAGCCT	left	59.825	27	22	19236918	CP136885.1	19236941,19236949,19236965	CP136885.1_19236941_19236965
0	TTCCGGTGGGGTTTGAAACA	right	60.033	125	20	19237016	CP136885.1	19236941,19236949,19236965	CP136885.1_19236941_19236965
0	TCTGGTGAACACAGAGGAGC	left	59.318	11	20	17422165	CP136885.1	17422195,17422197,17422202,17422228	CP136885.1_17422195_17422228
0	TTGTGCATCTGGTGAATCCAA	right	58.126	134	21	17422288	CP136885.1	17422195,17422197,17422202,17422228	CP136885.1_17422195_17422228
0	GGCTAATCCACATGTTAATCCACA	left	59.113	9	24	13657832	CP136885.1	13657866,13657871,13657881,13657888,13657897	CP136885.1_13657866_13657897
